Language model created by QuickLM on Sun Jul 22 20:09:26 EDT 2012
Copyright (c) 1996-2010 Carnegie Mellon University and Alexander I. Rudnicky

The model is in standard ARPA format, designed by Doug Paul while he was at MITRE.

The code that was used to produce this language model is available in Open Source.
Please visit http://www.speech.cs.cmu.edu/tools/ for more information

The (fixed) discount mass is 0.5. The backoffs are computed using the ratio method.
This model based on a corpus of 4 sentences and 6 words

\data\
ngram 1=6
ngram 2=8
ngram 3=4

\1-grams:
-0.7782 </s> -0.3010
-0.7782 <s> -0.2218
-1.3802 CUBE -0.2218
-1.3802 MUTE -0.2218
-1.3802 PLAY -0.2218
-1.3802 STOP -0.2218

\2-grams:
-0.9031 <s> CUBE 0.0000
-0.9031 <s> MUTE 0.0000
-0.9031 <s> PLAY 0.0000
-0.9031 <s> STOP 0.0000
-0.3010 CUBE </s> -0.3010
-0.3010 MUTE </s> -0.3010
-0.3010 PLAY </s> -0.3010
-0.3010 STOP </s> -0.3010

\3-grams:
-0.3010 <s> CUBE </s>
-0.3010 <s> MUTE </s>
-0.3010 <s> PLAY </s>
-0.3010 <s> STOP </s>

\end\
