#############################################################################
## Copyright (c) 1996, Carnegie Mellon University, Cambridge University,
## Ronald Rosenfeld and Philip Clarkson
## Version 3, Copyright (c) 2006, Carnegie Mellon University 
## Contributors includes Wen Xu, Ananlada Chotimongkol, 
## David Huggins-Daines, Arthur Chan and Alan Black 
#############################################################################
=============================================================================
===============  This file was produced by the CMU-Cambridge  ===============
===============     Statistical Language Modeling Toolkit     ===============
=============================================================================
This is a 3-gram language model, based on a vocabulary of 4990 words,
  which begins "</s>", "<s>", "a"...
This is a CLOSED-vocabulary model
  (OOVs eliminated from training data and are forbidden in test data)
Good-Turing discounting was applied.
1-gram frequency of frequency : 4985 
2-gram frequency of frequency : 9972 0 0 0 0 0 0 
3-gram frequency of frequency : 14958 0 0 0 0 0 0 
1-gram discounting ratios : 1.00 
2-gram discounting ratios : 
3-gram discounting ratios : 
This file is in the ARPA-standard format introduced by Doug Paul.

p(wd3|wd1,wd2)= if(trigram exists)           p_3(wd1,wd2,wd3)
                else if(bigram w1,w2 exists) bo_wt_2(w1,w2)*p(wd3|wd2)
                else                         p(wd3|w2)

p(wd2|wd1)= if(bigram exists) p_2(wd1,wd2)
            else              bo_wt_1(wd1)*p_1(wd2)

All probs and back-off weights (bo_wt) are given in log10 form.

Data formats:

Beginning of data mark: \data\
ngram 1=nr            # number of 1-grams
ngram 2=nr            # number of 2-grams
ngram 3=nr            # number of 3-grams

\1-grams:
p_1     wd_1 bo_wt_1
\2-grams:
p_2     wd_1 wd_2 bo_wt_2
\3-grams:
p_3     wd_1 wd_2 wd_3 

end of data mark: \end\

\data\
ngram 1=4990
ngram 2=9977
ngram 3=14964

\1-grams:
-0.4771 </s>	-3.5390
-0.4770 <s>	-3.5307
-4.1922 a	-0.3010
-4.1922 a.	-0.3010
-4.1922 a.'s	-0.3010
-4.1922 a.s	-0.3010
-4.1922 abandoned	-0.3010
-4.1922 ability	-0.3010
-4.1922 able	-0.3010
-4.1922 about	-0.3010
-4.1922 above	-0.3010
-4.1922 abreast	-0.3010
-4.1922 abroad	-0.3010
-4.1922 abrupt	-0.3010
-4.1922 absence	-0.3010
-4.1922 absolutely	-0.3010
-4.1922 absorb	-0.3010
-4.1922 absurd	-0.3010
-4.1922 academic	-0.3010
-4.1922 academy	-0.3010
-4.1922 accelerate	-0.3010
-4.1922 accelerated	-0.3010
-4.1922 accept	-0.3010
-4.1922 acceptable	-0.3010
-4.1922 acceptance	-0.3010
-4.1922 accepted	-0.3010
-4.1922 accepting	-0.3010
-4.1922 accepts	-0.3010
-4.1922 access	-0.3010
-4.1922 accident	-0.3010
-4.1922 accommodate	-0.3010
-4.1922 accord	-0.3010
-4.1922 according	-0.3010
-4.1922 account	-0.3010
-4.1922 accountants	-0.3010
-4.1922 accounted	-0.3010
-4.1922 accounting	-0.3010
-4.1922 accounts	-0.3010
-4.1922 accumulated	-0.3010
-4.1922 accumulating	-0.3010
-4.1922 accumulation	-0.3010
-4.1922 accurate	-0.3010
-4.1922 accused	-0.3010
-4.1922 achieve	-0.3010
-4.1922 achieved	-0.3010
-4.1922 acid	-0.3010
-4.1922 acknowledged	-0.3010
-4.1922 acknowledges	-0.3010
-4.1922 acquire	-0.3010
-4.1922 acquired	-0.3010
-4.1922 acquires	-0.3010
-4.1922 acquiring	-0.3010
-4.1922 acquisition	-0.3010
-4.1922 acquisitions	-0.3010
-4.1922 across	-0.3010
-4.1922 act	-0.3010
-4.1922 acted	-0.3010
-4.1922 action	-0.3010
-4.1922 actions	-0.3010
-4.1922 active	-0.3010
-4.1922 actively	-0.3010
-4.1922 activists	-0.3010
-4.1922 activities	-0.3010
-4.1922 activity	-0.3010
-4.1922 acts	-0.3010
-4.1922 actual	-0.3010
-4.1922 actually	-0.3010
-4.1922 ad	-0.3010
-4.1922 adamant	-0.3010
-4.1922 adams	-0.3010
-4.1922 add	-0.3010
-4.1922 added	-0.3010
-4.1922 adding	-0.3010
-4.1922 addition	-0.3010
-4.1922 additional	-0.3010
-4.1922 address	-0.3010
-4.1922 adds	-0.3010
-4.1922 adequate	-0.3010
-4.1922 adjust	-0.3010
-4.1922 adjustable	-0.3010
-4.1922 adjusted	-0.3010
-4.1922 adjustment	-0.3010
-4.1922 administration	-0.3010
-4.1922 administration's	-0.3010
-4.1922 administrative	-0.3010
-4.1922 admiral	-0.3010
-4.1922 adopt	-0.3010
-4.1922 adopted	-0.3010
-4.1922 ads	-0.3010
-4.1922 adult	-0.3010
-4.1922 advance	-0.3010
-4.1922 advanced	-0.3010
-4.1922 advances	-0.3010
-4.1922 advancing	-0.3010
-4.1922 advantage	-0.3010
-4.1922 advantages	-0.3010
-4.1922 advertisers	-0.3010
-4.1922 advertising	-0.3010
-4.1922 advice	-0.3010
-4.1922 advise	-0.3010
-4.1922 adviser	-0.3010
-4.1922 advisers	-0.3010
-4.1922 advocates	-0.3010
-4.1922 aerospace	-0.3010
-4.1922 affair	-0.3010
-4.1922 affairs	-0.3010
-4.1922 affect	-0.3010
-4.1922 affected	-0.3010
-4.1922 affecting	-0.3010
-4.1922 affiliate	-0.3010
-4.1922 affiliated	-0.3010
-4.1922 afford	-0.3010
-4.1922 africa	-0.3010
-4.1922 african	-0.3010
-4.1922 africans	-0.3010
-4.1922 after	-0.3010
-4.1922 afternoon	-0.3010
-4.1922 afterward	-0.3010
-4.1922 again	-0.3010
-4.1922 against	-0.3010
-4.1922 age	-0.3010
-4.1922 aged	-0.3010
-4.1922 agency	-0.3010
-4.1922 agency's	-0.3010
-4.1922 agent	-0.3010
-4.1922 agents	-0.3010
-4.1922 aggregate	-0.3010
-4.1922 aggressive	-0.3010
-4.1922 aggressively	-0.3010
-4.1922 ago	-0.3010
-4.1922 agree	-0.3010
-4.1922 agreed	-0.3010
-4.1922 agreement	-0.3010
-4.1922 agreements	-0.3010
-4.1922 agrees	-0.3010
-4.1922 agribusiness	-0.3010
-4.1922 agricultural	-0.3010
-4.1922 agriculture	-0.3010
-4.1922 ahead	-0.3010
-4.1922 aid	-0.3010
-4.1922 aide	-0.3010
-4.1922 aided	-0.3010
-4.1922 aides	-0.3010
-4.1922 aimed	-0.3010
-4.1922 aiming	-0.3010
-4.1922 aims	-0.3010
-4.1922 air	-0.3010
-4.1922 air's	-0.3010
-4.1922 airbus	-0.3010
-4.1922 aircraft	-0.3010
-4.1922 airing	-0.3010
-4.1922 airline	-0.3010
-4.1922 airlines	-0.3010
-4.1922 airways	-0.3010
-4.1922 alan	-0.3010
-4.1922 alarm	-0.3010
-4.1922 alaska	-0.3010
-4.1922 alcohol	-0.3010
-4.1922 alex	-0.3010
-4.1922 alexander's	-0.3010
-4.1922 alfred	-0.3010
-4.1922 alive	-0.3010
-4.1922 all	-0.3010
-4.1922 allegations	-0.3010
-4.1922 alleged	-0.3010
-4.1922 allegedly	-0.3010
-4.1922 allegheny	-0.3010
-4.1922 allegheny's	-0.3010
-4.1922 alleging	-0.3010
-4.1922 allegis	-0.3010
-4.1922 allen	-0.3010
-4.1922 alley	-0.3010
-4.1922 alliance	-0.3010
-4.1922 allied	-0.3010
-4.1922 allocates	-0.3010
-4.1922 allotments	-0.3010
-4.1922 allow	-0.3010
-4.1922 allowed	-0.3010
-4.1922 allowing	-0.3010
-4.1922 allows	-0.3010
-4.1922 alltel	-0.3010
-4.1922 almost	-0.3010
-4.1922 alone	-0.3010
-4.1922 along	-0.3010
-4.1922 already	-0.3010
-4.1922 also	-0.3010
-4.1922 alter	-0.3010
-4.1922 alternative	-0.3010
-4.1922 alternatives	-0.3010
-4.1922 although	-0.3010
-4.1922 always	-0.3010
-4.1922 am	-0.3010
-4.1922 amazes	-0.3010
-4.1922 amazingly	-0.3010
-4.1922 ambassador	-0.3010
-4.1922 ambitious	-0.3010
-4.1922 america	-0.3010
-4.1922 america's	-0.3010
-4.1922 american	-0.3010
-4.1922 american's	-0.3010
-4.1922 americans	-0.3010
-4.1922 ameritrust	-0.3010
-4.1922 amex	-0.3010
-4.1922 amfac	-0.3010
-4.1922 amid	-0.3010
-4.1922 amoco	-0.3010
-4.1922 among	-0.3010
-4.1922 amount	-0.3010
-4.1922 amounted	-0.3010
-4.1922 amounts	-0.3010
-4.1922 amsterdam	-0.3010
-4.1922 an	-0.3010
-4.1922 analysis	-0.3010
-4.1922 analyst	-0.3010
-4.1922 analysts	-0.3010
-4.1922 analysts'	-0.3010
-4.1922 and	-0.3010
-4.1922 anderson	-0.3010
-4.1922 andruskevich	-0.3010
-4.1922 angeles	-0.3010
-4.1922 animal	-0.3010
-4.1922 announce	-0.3010
-4.1922 announced	-0.3010
-4.1922 announcement	-0.3010
-4.1922 announcements	-0.3010
-4.1922 announcing	-0.3010
-4.1922 annual	-0.3010
-4.1922 annually	-0.3010
-4.1922 another	-0.3010
-4.1922 answer	-0.3010
-4.1922 answering	-0.3010
-4.1922 answers	-0.3010
-4.1922 anti	-0.3010
-4.1922 anticipated	-0.3010
-4.1922 anticipating	-0.3010
-4.1922 anticipation	-0.3010
-4.1922 antitrust	-0.3010
-4.1922 anxiety	-0.3010
-4.1922 any	-0.3010
-4.1922 anybody	-0.3010
-4.1922 anymore	-0.3010
-4.1922 anyone	-0.3010
-4.1922 anything	-0.3010
-4.1922 anywhere	-0.3010
-4.1922 apart	-0.3010
-4.1922 apparel	-0.3010
-4.1922 apparent	-0.3010
-4.1922 apparently	-0.3010
-4.1922 appeal	-0.3010
-4.1922 appealed	-0.3010
-4.1922 appealing	-0.3010
-4.1922 appear	-0.3010
-4.1922 appeared	-0.3010
-4.1922 appears	-0.3010
-4.1922 apple	-0.3010
-4.1922 applications	-0.3010
-4.1922 applied	-0.3010
-4.1922 appointed	-0.3010
-4.1922 appreciable	-0.3010
-4.1922 appreciate	-0.3010
-4.1922 appreciation	-0.3010
-4.1922 approach	-0.3010
-4.1922 approached	-0.3010
-4.1922 appropriate	-0.3010
-4.1922 approval	-0.3010
-4.1922 approvals	-0.3010
-4.1922 approve	-0.3010
-4.1922 approved	-0.3010
-4.1922 approximately	-0.3010
-4.1922 april	-0.3010
-4.1922 aquino	-0.3010
-4.1922 arabia	-0.3010
-4.1922 arb	-0.3010
-4.1922 arbitrage	-0.3010
-4.1922 arbitragers	-0.3010
-4.1922 are	-0.3010
-4.1922 area	-0.3010
-4.1922 areas	-0.3010
-4.1922 aren't	-0.3010
-4.1922 arena	-0.3010
-4.1922 argentine	-0.3010
-4.1922 argue	-0.3010
-4.1922 argued	-0.3010
-4.1922 argues	-0.3010
-4.1922 arguments	-0.3010
-4.1922 arizona	-0.3010
-4.1922 arkansas	-0.3010
-4.1922 arms	-0.3010
-4.1922 army	-0.3010
-4.1922 arnold	-0.3010
-4.1922 around	-0.3010
-4.1922 arrange	-0.3010
-4.1922 arranged	-0.3010
-4.1922 arrangement	-0.3010
-4.1922 arrangements	-0.3010
-4.1922 arrears	-0.3010
-4.1922 arrived	-0.3010
-4.1922 artists	-0.3010
-4.1922 as	-0.3010
-4.1922 asbestos	-0.3010
-4.1922 ashland	-0.3010
-4.1922 ashland's	-0.3010
-4.1922 asian	-0.3010
-4.1922 aside	-0.3010
-4.1922 ask	-0.3010
-4.1922 asked	-0.3010
-4.1922 asking	-0.3010
-4.1922 asks	-0.3010
-4.1922 aspects	-0.3010
-4.1922 assembly	-0.3010
-4.1922 asserted	-0.3010
-4.1922 assertion	-0.3010
-4.1922 asserts	-0.3010
-4.1922 assessment	-0.3010
-4.1922 asset	-0.3010
-4.1922 assets	-0.3010
-4.1922 assist	-0.3010
-4.1922 assistance	-0.3010
-4.1922 associated	-0.3010
-4.1922 association	-0.3010
-4.1922 assume	-0.3010
-4.1922 assumed	-0.3010
-4.1922 assumes	-0.3010
-4.1922 assurance	-0.3010
-4.1922 assure	-0.3010
-4.1922 assured	-0.3010
-4.1922 assures	-0.3010
-4.1922 at	-0.3010
-4.1922 atlantic	-0.3010
-4.1922 atlantic's	-0.3010
-4.1922 attack	-0.3010
-4.1922 attacked	-0.3010
-4.1922 attacks	-0.3010
-4.1922 attempt	-0.3010
-4.1922 attempting	-0.3010
-4.1922 attempts	-0.3010
-4.1922 attend	-0.3010
-4.1922 attendants	-0.3010
-4.1922 attention	-0.3010
-4.1922 attitude	-0.3010
-4.1922 attorneys	-0.3010
-4.1922 attract	-0.3010
-4.1922 attracted	-0.3010
-4.1922 attracting	-0.3010
-4.1922 attractive	-0.3010
-4.1922 attributed	-0.3010
-4.1922 attrition	-0.3010
-4.1922 auction	-0.3010
-4.1922 audit	-0.3010
-4.1922 auditors	-0.3010
-4.1922 august	-0.3010
-4.1922 australia	-0.3010
-4.1922 australian	-0.3010
-4.1922 authorities	-0.3010
-4.1922 authority	-0.3010
-4.1922 authorization	-0.3010
-4.1922 authorized	-0.3010
-4.1922 auto	-0.3010
-4.1922 automated	-0.3010
-4.1922 automatic	-0.3010
-4.1922 automobile	-0.3010
-4.1922 automobiles	-0.3010
-4.1922 automotive	-0.3010
-4.1922 autos	-0.3010
-4.1922 availability	-0.3010
-4.1922 available	-0.3010
-4.1922 avenue	-0.3010
-4.1922 average	-0.3010
-4.1922 averaged	-0.3010
-4.1922 avoid	-0.3010
-4.1922 avoided	-0.3010
-4.1922 award	-0.3010
-4.1922 awarded	-0.3010
-4.1922 awards	-0.3010
-4.1922 aware	-0.3010
-4.1922 away	-0.3010
-4.1922 b.	-0.3010
-4.1922 babcock	-0.3010
-4.1922 bache	-0.3010
-4.1922 back	-0.3010
-4.1922 backed	-0.3010
-4.1922 backlog	-0.3010
-4.1922 backlogs	-0.3010
-4.1922 backroom	-0.3010
-4.1922 backs	-0.3010
-4.1922 bad	-0.3010
-4.1922 badly	-0.3010
-4.1922 bags	-0.3010
-4.1922 baker	-0.3010
-4.1922 baker's	-0.3010
-4.1922 bakersfield	-0.3010
-4.1922 balance	-0.3010
-4.1922 ballooned	-0.3010
-4.1922 baltimore	-0.3010
-4.1922 ban	-0.3010
-4.1922 bancorp	-0.3010
-4.1922 band	-0.3010
-4.1922 bandwagon	-0.3010
-4.1922 bank	-0.3010
-4.1922 bank's	-0.3010
-4.1922 bankamerica	-0.3010
-4.1922 banker	-0.3010
-4.1922 bankers	-0.3010
-4.1922 banking	-0.3010
-4.1922 bankruptcies	-0.3010
-4.1922 bankruptcy	-0.3010
-4.1922 banks	-0.3010
-4.1922 banks'	-0.3010
-4.1922 bar	-0.3010
-4.1922 barely	-0.3010
-4.1922 bargain	-0.3010
-4.1922 bargaining	-0.3010
-4.1922 barney	-0.3010
-4.1922 barred	-0.3010
-4.1922 barrel	-0.3010
-4.1922 barrels	-0.3010
-4.1922 barrett	-0.3010
-4.1922 barriers	-0.3010
-4.1922 barthel	-0.3010
-4.1922 base	-0.3010
-4.1922 based	-0.3010
-4.1922 bases	-0.3010
-4.1922 basic	-0.3010
-4.1922 basically	-0.3010
-4.1922 basis	-0.3010
-4.1922 bass	-0.3010
-4.1922 bassett	-0.3010
-4.1922 battle	-0.3010
-4.1922 bays	-0.3010
-4.1922 be	-0.3010
-4.1922 beach	-0.3010
-4.1922 bear	-0.3010
-4.1922 bearings	-0.3010
-4.1922 bearish	-0.3010
-4.1922 beatrice	-0.3010
-4.1922 beatrice's	-0.3010
-4.1922 beaufort	-0.3010
-4.1922 beaverton	-0.3010
-4.1922 became	-0.3010
-4.1922 because	-0.3010
-4.1922 become	-0.3010
-4.1922 becomes	-0.3010
-4.1922 becoming	-0.3010
-4.1922 been	-0.3010
-4.1922 beer	-0.3010
-4.1922 before	-0.3010
-4.1922 began	-0.3010
-4.1922 begin	-0.3010
-4.1922 beginning	-0.3010
-4.1922 begins	-0.3010
-4.1922 begun	-0.3010
-4.1922 behalf	-0.3010
-4.1922 behavior	-0.3010
-4.1922 behind	-0.3010
-4.1922 being	-0.3010
-4.1922 belief	-0.3010
-4.1922 believe	-0.3010
-4.1922 believed	-0.3010
-4.1922 believes	-0.3010
-4.1922 bell	-0.3010
-4.1922 belli	-0.3010
-4.1922 below	-0.3010
-4.1922 belt	-0.3010
-4.1922 benchmark	-0.3010
-4.1922 beneficial	-0.3010
-4.1922 benefit	-0.3010
-4.1922 benefits	-0.3010
-4.1922 benham	-0.3010
-4.1922 bentsen	-0.3010
-4.1922 bernard	-0.3010
-4.1922 best	-0.3010
-4.1922 bet	-0.3010
-4.1922 bethlehem	-0.3010
-4.1922 better	-0.3010
-4.1922 betting	-0.3010
-4.1922 between	-0.3010
-4.1922 beverly	-0.3010
-4.1922 beyond	-0.3010
-4.1922 bid	-0.3010
-4.1922 bidder	-0.3010
-4.1922 bidders	-0.3010
-4.1922 bidding	-0.3010
-4.1922 biden	-0.3010
-4.1922 bids	-0.3010
-4.1922 big	-0.3010
-4.1922 bigger	-0.3010
-4.1922 biggest	-0.3010
-4.1922 bijur	-0.3010
-4.1922 bill	-0.3010
-4.1922 bill's	-0.3010
-4.1922 billed	-0.3010
-4.1922 billes	-0.3010
-4.1922 billion	-0.3010
-4.1922 billions	-0.3010
-4.1922 bills	-0.3010
-4.1922 bilzerian	-0.3010
-4.1922 biotechnology	-0.3010
-4.1922 bit	-0.3010
-4.1922 bite	-0.3010
-4.1922 black	-0.3010
-4.1922 blackburn	-0.3010
-4.1922 blacks	-0.3010
-4.1922 blair	-0.3010
-4.1922 blame	-0.3010
-4.1922 blinking	-0.3010
-4.1922 bloc	-0.3010
-4.1922 block	-0.3010
-4.1922 blow	-0.3010
-4.1922 blown	-0.3010
-4.1922 blue	-0.3010
-4.1922 board	-0.3010
-4.1922 board's	-0.3010
-4.1922 boards	-0.3010
-4.1922 boat	-0.3010
-4.1922 body	-0.3010
-4.1922 boeing	-0.3010
-4.1922 boesky	-0.3010
-4.1922 bolster	-0.3010
-4.1922 bond	-0.3010
-4.1922 bonds	-0.3010
-4.1922 bonn	-0.3010
-4.1922 bonus	-0.3010
-4.1922 bonuses	-0.3010
-4.1922 book	-0.3010
-4.1922 books	-0.3010
-4.1922 boom	-0.3010
-4.1922 boomed	-0.3010
-4.1922 booming	-0.3010
-4.1922 boone	-0.3010
-4.1922 boost	-0.3010
-4.1922 boosted	-0.3010
-4.1922 boosting	-0.3010
-4.1922 boosts	-0.3010
-4.1922 border	-0.3010
-4.1922 bork	-0.3010
-4.1922 borrow	-0.3010
-4.1922 borrowed	-0.3010
-4.1922 borrowing	-0.3010
-4.1922 borrowings	-0.3010
-4.1922 borrows	-0.3010
-4.1922 boss	-0.3010
-4.1922 boston	-0.3010
-4.1922 both	-0.3010
-4.1922 bother	-0.3010
-4.1922 bought	-0.3010
-4.1922 bounce	-0.3010
-4.1922 bounded	-0.3010
-4.1922 bounds	-0.3010
-4.1922 boy	-0.3010
-4.1922 boy's	-0.3010
-4.1922 brady	-0.3010
-4.1922 branch	-0.3010
-4.1922 branches	-0.3010
-4.1922 brands	-0.3010
-4.1922 brands's	-0.3010
-4.1922 branford	-0.3010
-4.1922 brazil	-0.3010
-4.1922 brazilian	-0.3010
-4.1922 break	-0.3010
-4.1922 breaking	-0.3010
-4.1922 breaks	-0.3010
-4.1922 brebach	-0.3010
-4.1922 brewing	-0.3010
-4.1922 brian	-0.3010
-4.1922 bridge	-0.3010
-4.1922 brief	-0.3010
-4.1922 bright	-0.3010
-4.1922 bring	-0.3010
-4.1922 brings	-0.3010
-4.1922 brinson	-0.3010
-4.1922 brisk	-0.3010
-4.1922 briskly	-0.3010
-4.1922 britain	-0.3010
-4.1922 british	-0.3010
-4.1922 broad	-0.3010
-4.1922 broadcast	-0.3010
-4.1922 broadcaster	-0.3010
-4.1922 broadcasting	-0.3010
-4.1922 broader	-0.3010
-4.1922 broadly	-0.3010
-4.1922 broke	-0.3010
-4.1922 broken	-0.3010
-4.1922 broker	-0.3010
-4.1922 brokerage	-0.3010
-4.1922 brokers	-0.3010
-4.1922 brooklyn	-0.3010
-4.1922 brother	-0.3010
-4.1922 brothers	-0.3010
-4.1922 brought	-0.3010
-4.1922 brown	-0.3010
-4.1922 bruce	-0.3010
-4.1922 brunt	-0.3010
-4.1922 brussels	-0.3010
-4.1922 budget	-0.3010
-4.1922 budgeted	-0.3010
-4.1922 budgets	-0.3010
-4.1922 buffalo	-0.3010
-4.1922 build	-0.3010
-4.1922 building	-0.3010
-4.1922 built	-0.3010
-4.1922 bulk	-0.3010
-4.1922 bull	-0.3010
-4.1922 bullish	-0.3010
-4.1922 bulls	-0.3010
-4.1922 bundesbank	-0.3010
-4.1922 buoy	-0.3010
-4.1922 buoyed	-0.3010
-4.1922 burbank	-0.3010
-4.1922 bureau	-0.3010
-4.1922 burger	-0.3010
-4.1922 burlington	-0.3010
-4.1922 burnham	-0.3010
-4.1922 bush	-0.3010
-4.1922 bush's	-0.3010
-4.1922 business	-0.3010
-4.1922 businesses	-0.3010
-4.1922 businessman	-0.3010
-4.1922 businessmen	-0.3010
-4.1922 busy	-0.3010
-4.1922 but	-0.3010
-4.1922 buy	-0.3010
-4.1922 buyback	-0.3010
-4.1922 buyer	-0.3010
-4.1922 buyers	-0.3010
-4.1922 buying	-0.3010
-4.1922 buyout	-0.3010
-4.1922 by	-0.3010
-4.1922 c.	-0.3010
-4.1922 c.'s	-0.3010
-4.1922 c.s	-0.3010
-4.1922 cable	-0.3010
-4.1922 caesars	-0.3010
-4.1922 calculated	-0.3010
-4.1922 calculations	-0.3010
-4.1922 calendar	-0.3010
-4.1922 california	-0.3010
-4.1922 call	-0.3010
-4.1922 callable	-0.3010
-4.1922 called	-0.3010
-4.1922 calling	-0.3010
-4.1922 calls	-0.3010
-4.1922 calm	-0.3010
-4.1922 calmer	-0.3010
-4.1922 cambridge	-0.3010
-4.1922 came	-0.3010
-4.1922 camera	-0.3010
-4.1922 camp	-0.3010
-4.1922 campaign	-0.3010
-4.1922 campaigns	-0.3010
-4.1922 campbell	-0.3010
-4.1922 campeau	-0.3010
-4.1922 camps	-0.3010
-4.1922 can	-0.3010
-4.1922 can't	-0.3010
-4.1922 canada	-0.3010
-4.1922 canada's	-0.3010
-4.1922 canadian	-0.3010
-4.1922 canceled	-0.3010
-4.1922 candidate	-0.3010
-4.1922 candidates	-0.3010
-4.1922 canelo	-0.3010
-4.1922 cannot	-0.3010
-4.1922 cap	-0.3010
-4.1922 capable	-0.3010
-4.1922 capacity	-0.3010
-4.1922 capital	-0.3010
-4.1922 capitalization	-0.3010
-4.1922 capitol	-0.3010
-4.1922 car	-0.3010
-4.1922 card	-0.3010
-4.1922 cards	-0.3010
-4.1922 care	-0.3010
-4.1922 careful	-0.3010
-4.1922 carefully	-0.3010
-4.1922 cargo	-0.3010
-4.1922 carl	-0.3010
-4.1922 carolina	-0.3010
-4.1922 carried	-0.3010
-4.1922 carrier	-0.3010
-4.1922 carriers	-0.3010
-4.1922 carroll	-0.3010
-4.1922 carry	-0.3010
-4.1922 cars	-0.3010
-4.1922 carter	-0.3010
-4.1922 case	-0.3010
-4.1922 cases	-0.3010
-4.1922 cash	-0.3010
-4.1922 casino	-0.3010
-4.1922 cast	-0.3010
-4.1922 castle	-0.3010
-4.1922 casualty	-0.3010
-4.1922 catalog	-0.3010
-4.1922 categories	-0.3010
-4.1922 category	-0.3010
-4.1922 caterpillar	-0.3010
-4.1922 caters	-0.3010
-4.1922 catholic	-0.3010
-4.1922 cattle	-0.3010
-4.1922 caucus	-0.3010
-4.1922 caught	-0.3010
-4.1922 cause	-0.3010
-4.1922 caused	-0.3010
-4.1922 causing	-0.3010
-4.1922 caution	-0.3010
-4.1922 cautioned	-0.3010
-4.1922 cautious	-0.3010
-4.1922 cease	-0.3010
-4.1922 ceased	-0.3010
-4.1922 ceiling	-0.3010
-4.1922 cellular	-0.3010
-4.1922 cent	-0.3010
-4.1922 center	-0.3010
-4.1922 centered	-0.3010
-4.1922 centerior	-0.3010
-4.1922 central	-0.3010
-4.1922 cents	-0.3010
-4.1922 certain	-0.3010
-4.1922 certainly	-0.3010
-4.1922 certificates	-0.3010
-4.1922 chain	-0.3010
-4.1922 chain's	-0.3010
-4.1922 chains	-0.3010
-4.1922 chairman	-0.3010
-4.1922 challenge	-0.3010
-4.1922 challenges	-0.3010
-4.1922 challenging	-0.3010
-4.1922 chance	-0.3010
-4.1922 chances	-0.3010
-4.1922 change	-0.3010
-4.1922 changed	-0.3010
-4.1922 changes	-0.3010
-4.1922 changing	-0.3010
-4.1922 channel	-0.3010
-4.1922 channel's	-0.3010
-4.1922 chapter	-0.3010
-4.1922 charge	-0.3010
-4.1922 charged	-0.3010
-4.1922 charges	-0.3010
-4.1922 charging	-0.3010
-4.1922 charitable	-0.3010
-4.1922 charles	-0.3010
-4.1922 charter	-0.3010
-4.1922 chartered	-0.3010
-4.1922 cheap	-0.3010
-4.1922 cheaper	-0.3010
-4.1922 checks	-0.3010
-4.1922 cheering	-0.3010
-4.1922 chemical	-0.3010
-4.1922 chemicals	-0.3010
-4.1922 chevrolet	-0.3010
-4.1922 chevron	-0.3010
-4.1922 chicago	-0.3010
-4.1922 chief	-0.3010
-4.1922 chikos	-0.3010
-4.1922 children	-0.3010
-4.1922 china	-0.3010
-4.1922 chinese	-0.3010
-4.1922 chip	-0.3010
-4.1922 chips	-0.3010
-4.1922 choice	-0.3010
-4.1922 choices	-0.3010
-4.1922 choosing	-0.3010
-4.1922 chose	-0.3010
-4.1922 chosen	-0.3010
-4.1922 christmas	-0.3010
-4.1922 chrysler	-0.3010
-4.1922 chrysler's	-0.3010
-4.1922 chun	-0.3010
-4.1922 church	-0.3010
-4.1922 churn	-0.3010
-4.1922 cigarette	-0.3010
-4.1922 cigarettes	-0.3010
-4.1922 cincinnati	-0.3010
-4.1922 circulated	-0.3010
-4.1922 circumstances	-0.3010
-4.1922 cite	-0.3010
-4.1922 cited	-0.3010
-4.1922 cites	-0.3010
-4.1922 citibank	-0.3010
-4.1922 citicorp	-0.3010
-4.1922 citicorp's	-0.3010
-4.1922 cities	-0.3010
-4.1922 citizens	-0.3010
-4.1922 city	-0.3010
-4.1922 civil	-0.3010
-4.1922 claim	-0.3010
-4.1922 claims	-0.3010
-4.1922 clamor	-0.3010
-4.1922 clamoring	-0.3010
-4.1922 clarke	-0.3010
-4.1922 class	-0.3010
-4.1922 classes	-0.3010
-4.1922 classification	-0.3010
-4.1922 clauses	-0.3010
-4.1922 clean	-0.3010
-4.1922 cleaners	-0.3010
-4.1922 cleaning	-0.3010
-4.1922 cleanup	-0.3010
-4.1922 clear	-0.3010
-4.1922 clearance	-0.3010
-4.1922 clearances	-0.3010
-4.1922 clearly	-0.3010
-4.1922 cleveland	-0.3010
-4.1922 client	-0.3010
-4.1922 clients	-0.3010
-4.1922 climate	-0.3010
-4.1922 climb	-0.3010
-4.1922 climbed	-0.3010
-4.1922 clinton	-0.3010
-4.1922 close	-0.3010
-4.1922 closed	-0.3010
-4.1922 closely	-0.3010
-4.1922 closer	-0.3010
-4.1922 closing	-0.3010
-4.1922 closings	-0.3010
-4.1922 clothes	-0.3010
-4.1922 clouded	-0.3010
-4.1922 club	-0.3010
-4.1922 clutter	-0.3010
-4.1922 co	-0.3010
-4.1922 coal	-0.3010
-4.1922 coast	-0.3010
-4.1922 coffee	-0.3010
-4.1922 cohen	-0.3010
-4.1922 cohn	-0.3010
-4.1922 cole	-0.3010
-4.1922 coleco	-0.3010
-4.1922 coleman	-0.3010
-4.1922 collapse	-0.3010
-4.1922 collapsed	-0.3010
-4.1922 collateral	-0.3010
-4.1922 colleagues	-0.3010
-4.1922 collect	-0.3010
-4.1922 collected	-0.3010
-4.1922 collectively	-0.3010
-4.1922 colonel	-0.3010
-4.1922 color	-0.3010
-4.1922 colorado	-0.3010
-4.1922 columbia	-0.3010
-4.1922 column	-0.3010
-4.1922 combat	-0.3010
-4.1922 combination	-0.3010
-4.1922 combined	-0.3010
-4.1922 come	-0.3010
-4.1922 comes	-0.3010
-4.1922 comfortable	-0.3010
-4.1922 coming	-0.3010
-4.1922 comment	-0.3010
-4.1922 comments	-0.3010
-4.1922 commerce	-0.3010
-4.1922 commercial	-0.3010
-4.1922 commercials	-0.3010
-4.1922 commission	-0.3010
-4.1922 commission's	-0.3010
-4.1922 commissions	-0.3010
-4.1922 commit	-0.3010
-4.1922 commitment	-0.3010
-4.1922 commitments	-0.3010
-4.1922 committed	-0.3010
-4.1922 committee	-0.3010
-4.1922 committee's	-0.3010
-4.1922 committees	-0.3010
-4.1922 commodities	-0.3010
-4.1922 commodity	-0.3010
-4.1922 common	-0.3010
-4.1922 commonplace	-0.3010
-4.1922 commonwealth	-0.3010
-4.1922 communication	-0.3010
-4.1922 communications	-0.3010
-4.1922 communities	-0.3010
-4.1922 community	-0.3010
-4.1922 companies	-0.3010
-4.1922 companies'	-0.3010
-4.1922 company	-0.3010
-4.1922 company's	-0.3010
-4.1922 compaq	-0.3010
-4.1922 comparable	-0.3010
-4.1922 compared	-0.3010
-4.1922 compares	-0.3010
-4.1922 compensation	-0.3010
-4.1922 compete	-0.3010
-4.1922 competed	-0.3010
-4.1922 competing	-0.3010
-4.1922 competition	-0.3010
-4.1922 competitive	-0.3010
-4.1922 competitively	-0.3010
-4.1922 competitiveness	-0.3010
-4.1922 competitors	-0.3010
-4.1922 compiled	-0.3010
-4.1922 complain	-0.3010
-4.1922 complaint	-0.3010
-4.1922 complete	-0.3010
-4.1922 completed	-0.3010
-4.1922 completely	-0.3010
-4.1922 completion	-0.3010
-4.1922 complex	-0.3010
-4.1922 compliance	-0.3010
-4.1922 comply	-0.3010
-4.1922 component	-0.3010
-4.1922 composite	-0.3010
-4.1922 comprehensive	-0.3010
-4.1922 comprise	-0.3010
-4.1922 comprised	-0.3010
-4.1922 compromise	-0.3010
-4.1922 computer	-0.3010
-4.1922 computerized	-0.3010
-4.1922 computers	-0.3010
-4.1922 concede	-0.3010
-4.1922 conceded	-0.3010
-4.1922 concedes	-0.3010
-4.1922 concentrate	-0.3010
-4.1922 concentrated	-0.3010
-4.1922 concentrating	-0.3010
-4.1922 concern	-0.3010
-4.1922 concerned	-0.3010
-4.1922 concerning	-0.3010
-4.1922 concerns	-0.3010
-4.1922 concessions	-0.3010
-4.1922 concluded	-0.3010
-4.1922 conclusion	-0.3010
-4.1922 condition	-0.3010
-4.1922 conditioned	-0.3010
-4.1922 conditions	-0.3010
-4.1922 conducted	-0.3010
-4.1922 conference	-0.3010
-4.1922 confess	-0.3010
-4.1922 confidence	-0.3010
-4.1922 confident	-0.3010
-4.1922 confidential	-0.3010
-4.1922 confirm	-0.3010
-4.1922 confirmed	-0.3010
-4.1922 confirms	-0.3010
-4.1922 confiscated	-0.3010
-4.1922 conflict	-0.3010
-4.1922 confrontation	-0.3010
-4.1922 confusion	-0.3010
-4.1922 congeniality	-0.3010
-4.1922 congress	-0.3010
-4.1922 congressional	-0.3010
-4.1922 congressmen	-0.3010
-4.1922 coniston	-0.3010
-4.1922 conjunction	-0.3010
-4.1922 conley	-0.3010
-4.1922 connected	-0.3010
-4.1922 connecticut	-0.3010
-4.1922 connection	-0.3010
-4.1922 consecutive	-0.3010
-4.1922 consensus	-0.3010
-4.1922 consequences	-0.3010
-4.1922 conservative	-0.3010
-4.1922 consider	-0.3010
-4.1922 considerably	-0.3010
-4.1922 consideration	-0.3010
-4.1922 considerations	-0.3010
-4.1922 considered	-0.3010
-4.1922 considering	-0.3010
-4.1922 considers	-0.3010
-4.1922 consistently	-0.3010
-4.1922 consolidated	-0.3010
-4.1922 consolidating	-0.3010
-4.1922 consortium	-0.3010
-4.1922 constant	-0.3010
-4.1922 constitutional	-0.3010
-4.1922 constitutionality	-0.3010
-4.1922 constricting	-0.3010
-4.1922 construction	-0.3010
-4.1922 consultants	-0.3010
-4.1922 consulting	-0.3010
-4.1922 consumed	-0.3010
-4.1922 consumer	-0.3010
-4.1922 consumers	-0.3010
-4.1922 consumers'	-0.3010
-4.1922 consummated	-0.3010
-4.1922 consumption	-0.3010
-4.1922 contact	-0.3010
-4.1922 contacted	-0.3010
-4.1922 contacts	-0.3010
-4.1922 contain	-0.3010
-4.1922 contains	-0.3010
-4.1922 contend	-0.3010
-4.1922 contended	-0.3010
-4.1922 contends	-0.3010
-4.1922 contents	-0.3010
-4.1922 contest	-0.3010
-4.1922 continental	-0.3010
-4.1922 contingent	-0.3010
-4.1922 continue	-0.3010
-4.1922 continued	-0.3010
-4.1922 continues	-0.3010
-4.1922 continuing	-0.3010
-4.1922 contra	-0.3010
-4.1922 contract	-0.3010
-4.1922 contracting	-0.3010
-4.1922 contraction	-0.3010
-4.1922 contractor	-0.3010
-4.1922 contractors	-0.3010
-4.1922 contracts	-0.3010
-4.1922 contras	-0.3010
-4.1922 contrast	-0.3010
-4.1922 contribute	-0.3010
-4.1922 contributed	-0.3010
-4.1922 contributing	-0.3010
-4.1922 contribution	-0.3010
-4.1922 contributions	-0.3010
-4.1922 control	-0.3010
-4.1922 controlled	-0.3010
-4.1922 controlling	-0.3010
-4.1922 controls	-0.3010
-4.1922 controversial	-0.3010
-4.1922 controversies	-0.3010
-4.1922 conversation	-0.3010
-4.1922 convert	-0.3010
-4.1922 converted	-0.3010
-4.1922 convertible	-0.3010
-4.1922 cook	-0.3010
-4.1922 cool	-0.3010
-4.1922 cooled	-0.3010
-4.1922 cooper	-0.3010
-4.1922 cooperation	-0.3010
-4.1922 coors	-0.3010
-4.1922 copper	-0.3010
-4.1922 core	-0.3010
-4.1922 corner	-0.3010
-4.1922 corning	-0.3010
-4.1922 corporate	-0.3010
-4.1922 corporation	-0.3010
-4.1922 corporation's	-0.3010
-4.1922 corporations	-0.3010
-4.1922 corps	-0.3010
-4.1922 correction	-0.3010
-4.1922 cost	-0.3010
-4.1922 costly	-0.3010
-4.1922 costs	-0.3010
-4.1922 could	-0.3010
-4.1922 couldn't	-0.3010
-4.1922 council	-0.3010
-4.1922 counselor	-0.3010
-4.1922 count	-0.3010
-4.1922 counter	-0.3010
-4.1922 counterpart	-0.3010
-4.1922 counting	-0.3010
-4.1922 countries	-0.3010
-4.1922 country	-0.3010
-4.1922 country's	-0.3010
-4.1922 counts	-0.3010
-4.1922 couple	-0.3010
-4.1922 couples	-0.3010
-4.1922 coupon	-0.3010
-4.1922 course	-0.3010
-4.1922 court	-0.3010
-4.1922 court's	-0.3010
-4.1922 courts	-0.3010
-4.1922 cover	-0.3010
-4.1922 coverage	-0.3010
-4.1922 covered	-0.3010
-4.1922 covering	-0.3010
-4.1922 covers	-0.3010
-4.1922 craft	-0.3010
-4.1922 crash	-0.3010
-4.1922 crazy	-0.3010
-4.1922 create	-0.3010
-4.1922 created	-0.3010
-4.1922 creating	-0.3010
-4.1922 creation	-0.3010
-4.1922 credit	-0.3010
-4.1922 creditor	-0.3010
-4.1922 creditors	-0.3010
-4.1922 credits	-0.3010
-4.1922 crew	-0.3010
-4.1922 crimes	-0.3010
-4.1922 criminal	-0.3010
-4.1922 crisis	-0.3010
-4.1922 criteria	-0.3010
-4.1922 critic	-0.3010
-4.1922 critical	-0.3010
-4.1922 criticized	-0.3010
-4.1922 critics	-0.3010
-4.1922 cromwell	-0.3010
-4.1922 crop	-0.3010
-4.1922 cross	-0.3010
-4.1922 crosstown	-0.3010
-4.1922 crucial	-0.3010
-4.1922 crude	-0.3010
-4.1922 crudes	-0.3010
-4.1922 cruise	-0.3010
-4.1922 crunch	-0.3010
-4.1922 crying	-0.3010
-2.1878 cube	-1.8367
-4.1922 cuff	-0.3010
-4.1922 cumulative	-0.3010
-4.1922 curb	-0.3010
-4.1922 currencies	-0.3010
-4.1922 currency	-0.3010
-4.1922 current	-0.3010
-4.1922 currently	-0.3010
-4.1922 customary	-0.3010
-4.1922 customer	-0.3010
-4.1922 customers	-0.3010
-4.1922 customers'	-0.3010
-4.1922 cut	-0.3010
-4.1922 cutbacks	-0.3010
-4.1922 cuts	-0.3010
-4.1922 cutting	-0.3010
-4.1922 cycle	-0.3010
-4.1922 cyclical	-0.3010
-4.1922 d.	-0.3010
-4.1922 daily	-0.3010
-4.1922 dallas	-0.3010
-4.1922 damage	-0.3010
-4.1922 damages	-0.3010
-4.1922 danger	-0.3010
-4.1922 daniel	-0.3010
-4.1922 dark	-0.3010
-4.1922 dart	-0.3010
-4.1922 dashing	-0.3010
-4.1922 data	-0.3010
-4.1922 date	-0.3010
-4.1922 dated	-0.3010
-4.1922 dates	-0.3010
-4.1922 daunted	-0.3010
-4.1922 david	-0.3010
-4.1922 davis	-0.3010
-4.1922 davis's	-0.3010
-4.1922 day	-0.3010
-4.1922 day's	-0.3010
-4.1922 days	-0.3010
-4.1922 dayton	-0.3010
-4.1922 de	-0.3010
-4.1922 dead	-0.3010
-4.1922 deadline	-0.3010
-4.1922 deal	-0.3010
-4.1922 dealer	-0.3010
-4.1922 dealers	-0.3010
-4.1922 deals	-0.3010
-4.1922 dealt	-0.3010
-4.1922 dean	-0.3010
-4.1922 death	-0.3010
-4.1922 debate	-0.3010
-4.1922 debenture	-0.3010
-4.1922 debentures	-0.3010
-4.1922 debit	-0.3010
-4.1922 debt	-0.3010
-4.1922 debtors	-0.3010
-4.1922 decade	-0.3010
-4.1922 december	-0.3010
-4.1922 deceptively	-0.3010
-4.1922 decide	-0.3010
-4.1922 decided	-0.3010
-4.1922 decides	-0.3010
-4.1922 decision	-0.3010
-4.1922 decisions	-0.3010
-4.1922 declared	-0.3010
-4.1922 decline	-0.3010
-4.1922 declined	-0.3010
-4.1922 decliners	-0.3010
-4.1922 declines	-0.3010
-4.1922 declining	-0.3010
-4.1922 decrease	-0.3010
-4.1922 dedicated	-0.3010
-4.1922 deduction	-0.3010
-4.1922 deep	-0.3010
-4.1922 deeply	-0.3010
-4.1922 default	-0.3010
-4.1922 defeat	-0.3010
-4.1922 defeated	-0.3010
-4.1922 defend	-0.3010
-4.1922 defendants	-0.3010
-4.1922 defended	-0.3010
-4.1922 defending	-0.3010
-4.1922 defense	-0.3010
-4.1922 defensive	-0.3010
-4.1922 defer	-0.3010
-4.1922 deferring	-0.3010
-4.1922 deficit	-0.3010
-4.1922 deficits	-0.3010
-4.1922 definitive	-0.3010
-4.1922 delaware	-0.3010
-4.1922 delay	-0.3010
-4.1922 delayed	-0.3010
-4.1922 delays	-0.3010
-4.1922 delegates	-0.3010
-4.1922 delegation	-0.3010
-4.1922 deliver	-0.3010
-4.1922 deliverable	-0.3010
-4.1922 delivered	-0.3010
-4.1922 deliveries	-0.3010
-4.1922 delivery	-0.3010
-4.1922 delta	-0.3010
-4.1922 delves	-0.3010
-4.1922 demand	-0.3010
-4.1922 demanded	-0.3010
-4.1922 demanding	-0.3010
-4.1922 demands	-0.3010
-4.1922 democrat	-0.3010
-4.1922 democratic	-0.3010
-4.1922 democrats	-0.3010
-4.1922 demonstrations	-0.3010
-4.1922 denied	-0.3010
-4.1922 denies	-0.3010
-4.1922 denominated	-0.3010
-4.1922 density	-0.3010
-4.1922 denver	-0.3010
-4.1922 department	-0.3010
-4.1922 department's	-0.3010
-4.1922 departments	-0.3010
-4.1922 departure	-0.3010
-4.1922 dependent	-0.3010
-4.1922 depending	-0.3010
-4.1922 depends	-0.3010
-4.1922 deposit	-0.3010
-4.1922 depositors	-0.3010
-4.1922 deposits	-0.3010
-4.1922 depressed	-0.3010
-4.1922 depression	-0.3010
-4.1922 depths	-0.3010
-4.1922 deregulate	-0.3010
-4.1922 deregulated	-0.3010
-4.1922 deregulation	-0.3010
-4.1922 described	-0.3010
-4.1922 desert	-0.3010
-4.1922 designed	-0.3010
-4.1922 designer	-0.3010
-4.1922 designs	-0.3010
-4.1922 desire	-0.3010
-4.1922 desk	-0.3010
-4.1922 despite	-0.3010
-4.1922 destination	-0.3010
-4.1922 detailed	-0.3010
-4.1922 details	-0.3010
-4.1922 determine	-0.3010
-4.1922 determined	-0.3010
-4.1922 detroit	-0.3010
-4.1922 deukmejian's	-0.3010
-4.1922 deutsche	-0.3010
-4.1922 develop	-0.3010
-4.1922 developed	-0.3010
-4.1922 developer	-0.3010
-4.1922 developing	-0.3010
-4.1922 development	-0.3010
-4.1922 developments	-0.3010
-4.1922 develops	-0.3010
-4.1922 devices	-0.3010
-4.1922 dials	-0.3010
-4.1922 diamond	-0.3010
-4.1922 diana	-0.3010
-4.1922 did	-0.3010
-4.1922 didn't	-0.3010
-4.1922 die	-0.3010
-4.1922 died	-0.3010
-4.1922 diego	-0.3010
-4.1922 difference	-0.3010
-4.1922 different	-0.3010
-4.1922 difficult	-0.3010
-4.1922 difficulties	-0.3010
-4.1922 difficulty	-0.3010
-4.1922 digesting	-0.3010
-4.1922 digital	-0.3010
-4.1922 diluted	-0.3010
-4.1922 dip	-0.3010
-4.1922 diplomat	-0.3010
-4.1922 dipped	-0.3010
-4.1922 direct	-0.3010
-4.1922 direction	-0.3010
-4.1922 directly	-0.3010
-4.1922 director	-0.3010
-4.1922 directors	-0.3010
-4.1922 disappointing	-0.3010
-4.1922 disaster	-0.3010
-4.1922 discipline	-0.3010
-4.1922 disclose	-0.3010
-4.1922 disclosed	-0.3010
-4.1922 disclosure	-0.3010
-4.1922 discontinued	-0.3010
-4.1922 discount	-0.3010
-4.1922 discounts	-0.3010
-4.1922 discourage	-0.3010
-4.1922 discuss	-0.3010
-4.1922 discussed	-0.3010
-4.1922 discussing	-0.3010
-4.1922 discussions	-0.3010
-4.1922 disillusioned	-0.3010
-4.1922 dismissed	-0.3010
-4.1922 disney	-0.3010
-4.1922 dispose	-0.3010
-4.1922 disputed	-0.3010
-4.1922 disputes	-0.3010
-4.1922 distillers	-0.3010
-4.1922 distinguishes	-0.3010
-4.1922 distribute	-0.3010
-4.1922 distribution	-0.3010
-4.1922 distributor	-0.3010
-4.1922 district	-0.3010
-4.1922 diversicare	-0.3010
-4.1922 diversified	-0.3010
-4.1922 divided	-0.3010
-4.1922 dividend	-0.3010
-4.1922 dividends	-0.3010
-4.1922 division	-0.3010
-4.1922 divisions	-0.3010
-4.1922 do	-0.3010
-4.1922 doctor	-0.3010
-4.1922 document	-0.3010
-4.1922 doerr	-0.3010
-4.1922 does	-0.3010
-4.1922 doesn't	-0.3010
-4.1922 dofasco	-0.3010
-4.1922 dogmatic	-0.3010
-4.1922 doing	-0.3010
-4.1922 dole	-0.3010
-4.1922 dollar	-0.3010
-4.1922 dollar's	-0.3010
-4.1922 dollars	-0.3010
-4.1922 dome	-0.3010
-4.1922 domestic	-0.3010
-4.1922 dominated	-0.3010
-4.1922 dominee	-0.3010
-4.1922 dominion	-0.3010
-4.1922 don	-0.3010
-4.1922 don't	-0.3010
-4.1922 donald	-0.3010
-4.1922 donaldson	-0.3010
-4.1922 done	-0.3010
-4.1922 double	-0.3010
-4.1922 doubled	-0.3010
-4.1922 doubt	-0.3010
-4.1922 doubts	-0.3010
-4.1922 douglas	-0.3010
-4.1922 dow	-0.3010
-4.1922 down	-0.3010
-4.1922 downgraded	-0.3010
-4.1922 downgrades	-0.3010
-4.1922 downturn	-0.3010
-4.1922 downward	-0.3010
-4.1922 dozen	-0.3010
-4.1922 dozens	-0.3010
-4.1922 draft	-0.3010
-4.1922 drag	-0.3010
-4.1922 drain	-0.3010
-4.1922 dramatically	-0.3010
-4.1922 dravo	-0.3010
-4.1922 draw	-0.3010
-4.1922 drew	-0.3010
-4.1922 drexel	-0.3010
-4.1922 drifted	-0.3010
-4.1922 drifting	-0.3010
-4.1922 drilling	-0.3010
-4.1922 drive	-0.3010
-4.1922 driven	-0.3010
-4.1922 driver	-0.3010
-4.1922 driving	-0.3010
-4.1922 drop	-0.3010
-4.1922 dropped	-0.3010
-4.1922 dropping	-0.3010
-4.1922 drops	-0.3010
-4.1922 drought	-0.3010
-4.1922 drove	-0.3010
-4.1922 drug	-0.3010
-4.1922 drug's	-0.3010
-4.1922 drugs	-0.3010
-4.1922 dry	-0.3010
-4.1922 du	-0.3010
-4.1922 due	-0.3010
-4.1922 dukakis	-0.3010
-4.1922 dull	-0.3010
-4.1922 dumb	-0.3010
-4.1922 dumping	-0.3010
-4.1922 dun	-0.3010
-4.1922 durable	-0.3010
-4.1922 during	-0.3010
-4.1922 dutch	-0.3010
-4.1922 duties	-0.3010
-4.1922 dynamics	-0.3010
-4.1922 e.	-0.3010
-4.1922 e.'s	-0.3010
-4.1922 each	-0.3010
-4.1922 eads	-0.3010
-4.1922 earlier	-0.3010
-4.1922 earliest	-0.3010
-4.1922 early	-0.3010
-4.1922 earn	-0.3010
-4.1922 earned	-0.3010
-4.1922 earnings	-0.3010
-4.1922 ease	-0.3010
-4.1922 eased	-0.3010
-4.1922 easily	-0.3010
-4.1922 easing	-0.3010
-4.1922 east	-0.3010
-4.1922 eastern	-0.3010
-4.1922 eastern's	-0.3010
-4.1922 easy	-0.3010
-4.1922 economic	-0.3010
-4.1922 economics	-0.3010
-4.1922 economies	-0.3010
-4.1922 economist	-0.3010
-4.1922 economists	-0.3010
-4.1922 economy	-0.3010
-4.1922 economy's	-0.3010
-4.1922 eddie	-0.3010
-4.1922 edelman	-0.3010
-4.1922 edged	-0.3010
-4.1922 edison	-0.3010
-4.1922 edition	-0.3010
-4.1922 editor	-0.3010
-4.1922 editorial	-0.3010
-4.1922 editors	-0.3010
-4.1922 education	-0.3010
-4.1922 educational	-0.3010
-4.1922 effect	-0.3010
-4.1922 effective	-0.3010
-4.1922 effectively	-0.3010
-4.1922 effects	-0.3010
-4.1922 effort	-0.3010
-4.1922 efforts	-0.3010
-4.1922 eight	-0.3010
-4.1922 eighteen	-0.3010
-4.1922 eighteenth	-0.3010
-4.1922 eighth	-0.3010
-4.1922 eighths	-0.3010
-4.1922 eighties	-0.3010
-4.1922 eighty	-0.3010
-4.1922 einhorn	-0.3010
-4.1922 either	-0.3010
-4.1922 elaborate	-0.3010
-4.1922 elderly	-0.3010
-4.1922 elders	-0.3010
-4.1922 elect	-0.3010
-4.1922 elected	-0.3010
-4.1922 election	-0.3010
-4.1922 elections	-0.3010
-4.1922 electric	-0.3010
-4.1922 electrical	-0.3010
-4.1922 electricity	-0.3010
-4.1922 electronic	-0.3010
-4.1922 electronics	-0.3010
-4.1922 elects	-0.3010
-4.1922 eleven	-0.3010
-4.1922 eleventh	-0.3010
-4.1922 elf's	-0.3010
-4.1922 eligible	-0.3010
-4.1922 eliminate	-0.3010
-4.1922 eliminated	-0.3010
-4.1922 eliminating	-0.3010
-4.1922 else	-0.3010
-4.1922 elsewhere	-0.3010
-4.1922 elyria	-0.3010
-4.1922 embargo	-0.3010
-4.1922 emerge	-0.3010
-4.1922 emerged	-0.3010
-4.1922 emergency	-0.3010
-4.1922 emerging	-0.3010
-4.1922 eminently	-0.3010
-4.1922 emphasize	-0.3010
-4.1922 emphasized	-0.3010
-4.1922 employed	-0.3010
-4.1922 employee	-0.3010
-4.1922 employees	-0.3010
-4.1922 employer	-0.3010
-4.1922 employers	-0.3010
-4.1922 employment	-0.3010
-4.1922 employs	-0.3010
-4.1922 enable	-0.3010
-4.1922 enact	-0.3010
-4.1922 enacted	-0.3010
-4.1922 encourage	-0.3010
-4.1922 encouraged	-0.3010
-4.1922 encouraging	-0.3010
-4.1922 end	-0.3010
-4.1922 ended	-0.3010
-4.1922 ending	-0.3010
-4.1922 endorsed	-0.3010
-4.1922 endorses	-0.3010
-4.1922 endorsing	-0.3010
-4.1922 ends	-0.3010
-4.1922 energy	-0.3010
-4.1922 enforcement	-0.3010
-4.1922 engaged	-0.3010
-4.1922 engineering	-0.3010
-4.1922 engineers	-0.3010
-4.1922 engines	-0.3010
-4.1922 english	-0.3010
-4.1922 enhancing	-0.3010
-4.1922 enjoyed	-0.3010
-4.1922 enormous	-0.3010
-4.1922 enormously	-0.3010
-4.1922 enough	-0.3010
-4.1922 enter	-0.3010
-4.1922 entered	-0.3010
-4.1922 entering	-0.3010
-4.1922 enterprises	-0.3010
-4.1922 entertainment	-0.3010
-4.1922 enthusiasm	-0.3010
-4.1922 entire	-0.3010
-4.1922 entirely	-0.3010
-4.1922 entitled	-0.3010
-4.1922 entity	-0.3010
-4.1922 entry	-0.3010
-4.1922 envirodyne	-0.3010
-4.1922 environmental	-0.3010
-4.1922 equal	-0.3010
-4.1922 equaling	-0.3010
-4.1922 equally	-0.3010
-4.1922 equipment	-0.3010
-4.1922 equitable	-0.3010
-4.1922 equities	-0.3010
-4.1922 equity	-0.3010
-4.1922 equivalent	-0.3010
-4.1922 era	-0.3010
-4.1922 eroded	-0.3010
-4.1922 erratically	-0.3010
-4.1922 error	-0.3010
-4.1922 escaped	-0.3010
-4.1922 essentially	-0.3010
-4.1922 establish	-0.3010
-4.1922 established	-0.3010
-4.1922 estate	-0.3010
-4.1922 estimate	-0.3010
-4.1922 estimated	-0.3010
-4.1922 estimates	-0.3010
-4.1922 ethyl	-0.3010
-4.1922 eurobond	-0.3010
-4.1922 eurodollar	-0.3010
-4.1922 europe	-0.3010
-4.1922 european	-0.3010
-4.1922 eurotunnel	-0.3010
-4.1922 evaluate	-0.3010
-4.1922 evans	-0.3010
-4.1922 even	-0.3010
-4.1922 evening	-0.3010
-4.1922 evenly	-0.3010
-4.1922 event	-0.3010
-4.1922 events	-0.3010
-4.1922 eventual	-0.3010
-4.1922 eventually	-0.3010
-4.1922 ever	-0.3010
-4.1922 every	-0.3010
-4.1922 everybody	-0.3010
-4.1922 everyone	-0.3010
-4.1922 everything	-0.3010
-4.1922 everywhere	-0.3010
-4.1922 evicting	-0.3010
-4.1922 evidence	-0.3010
-4.1922 evidenced	-0.3010
-4.1922 evident	-0.3010
-4.1922 evolve	-0.3010
-4.1922 ex	-0.3010
-4.1922 exacerbate	-0.3010
-4.1922 exact	-0.3010
-4.1922 exactly	-0.3010
-4.1922 examine	-0.3010
-4.1922 example	-0.3010
-4.1922 exceed	-0.3010
-4.1922 exceeded	-0.3010
-4.1922 exceeding	-0.3010
-4.1922 exceeds	-0.3010
-4.1922 excellent	-0.3010
-4.1922 except	-0.3010
-4.1922 excess	-0.3010
-4.1922 excessive	-0.3010
-4.1922 exchange	-0.3010
-4.1922 exchange's	-0.3010
-4.1922 exchanged	-0.3010
-4.1922 exchanges	-0.3010
-4.1922 excise	-0.3010
-4.1922 excited	-0.3010
-4.1922 excluded	-0.3010
-4.1922 excluding	-0.3010
-4.1922 executive	-0.3010
-4.1922 executives	-0.3010
-4.1922 exempt	-0.3010
-4.1922 exemption	-0.3010
-4.1922 exist	-0.3010
-4.1922 existing	-0.3010
-4.1922 exists	-0.3010
-4.1922 expand	-0.3010
-4.1922 expanded	-0.3010
-4.1922 expanding	-0.3010
-4.1922 expansion	-0.3010
-4.1922 expect	-0.3010
-4.1922 expectations	-0.3010
-4.1922 expected	-0.3010
-4.1922 expecting	-0.3010
-4.1922 expects	-0.3010
-4.1922 expenditures	-0.3010
-4.1922 expense	-0.3010
-4.1922 expenses	-0.3010
-4.1922 expensive	-0.3010
-4.1922 experience	-0.3010
-4.1922 experienced	-0.3010
-4.1922 experiment	-0.3010
-4.1922 expert	-0.3010
-4.1922 experts	-0.3010
-4.1922 expiration	-0.3010
-4.1922 expire	-0.3010
-4.1922 expired	-0.3010
-4.1922 expires	-0.3010
-4.1922 explain	-0.3010
-4.1922 explained	-0.3010
-4.1922 explains	-0.3010
-4.1922 explanation	-0.3010
-4.1922 explode	-0.3010
-4.1922 exploration	-0.3010
-4.1922 explore	-0.3010
-4.1922 explosion	-0.3010
-4.1922 export	-0.3010
-4.1922 exporters	-0.3010
-4.1922 exporting	-0.3010
-4.1922 exports	-0.3010
-4.1922 exposed	-0.3010
-4.1922 exposing	-0.3010
-4.1922 exposure	-0.3010
-4.1922 express	-0.3010
-4.1922 expressed	-0.3010
-4.1922 expulsion	-0.3010
-4.1922 extend	-0.3010
-4.1922 extended	-0.3010
-4.1922 extension	-0.3010
-4.1922 extensive	-0.3010
-4.1922 extent	-0.3010
-4.1922 extra	-0.3010
-4.1922 extraction	-0.3010
-4.1922 extraordinary	-0.3010
-4.1922 extreme	-0.3010
-4.1922 exxon	-0.3010
-4.1922 eyes	-0.3010
-4.1922 f.	-0.3010
-4.1922 face	-0.3010
-4.1922 faced	-0.3010
-4.1922 facilitate	-0.3010
-4.1922 facilities	-0.3010
-4.1922 facility	-0.3010
-4.1922 facing	-0.3010
-4.1922 fact	-0.3010
-4.1922 factor	-0.3010
-4.1922 factories	-0.3010
-4.1922 factors	-0.3010
-4.1922 factory	-0.3010
-4.1922 facts	-0.3010
-4.1922 failed	-0.3010
-4.1922 failing	-0.3010
-4.1922 fails	-0.3010
-4.1922 failure	-0.3010
-4.1922 fair	-0.3010
-4.1922 fairly	-0.3010
-4.1922 fairness	-0.3010
-4.1922 fall	-0.3010
-4.1922 fallen	-0.3010
-4.1922 falling	-0.3010
-4.1922 false	-0.3010
-4.1922 familiar	-0.3010
-4.1922 families	-0.3010
-4.1922 family	-0.3010
-4.1922 fannie	-0.3010
-4.1922 far	-0.3010
-4.1922 fare	-0.3010
-4.1922 fares	-0.3010
-4.1922 fargo	-0.3010
-4.1922 farm	-0.3010
-4.1922 farmers	-0.3010
-4.1922 farms	-0.3010
-4.1922 farms'	-0.3010
-4.1922 farrell	-0.3010
-4.1922 fast	-0.3010
-4.1922 faster	-0.3010
-4.1922 fastest	-0.3010
-4.1922 fate	-0.3010
-4.1922 favor	-0.3010
-4.1922 favorable	-0.3010
-4.1922 favored	-0.3010
-4.1922 favorite	-0.3010
-4.1922 favors	-0.3010
-4.1922 fe	-0.3010
-4.1922 fear	-0.3010
-4.1922 feared	-0.3010
-4.1922 fearful	-0.3010
-4.1922 fearing	-0.3010
-4.1922 fears	-0.3010
-4.1922 features	-0.3010
-4.1922 february	-0.3010
-4.1922 fed	-0.3010
-4.1922 fed's	-0.3010
-4.1922 federal	-0.3010
-4.1922 federally	-0.3010
-4.1922 federated	-0.3010
-4.1922 fee	-0.3010
-4.1922 feed	-0.3010
-4.1922 feel	-0.3010
-4.1922 feeling	-0.3010
-4.1922 feels	-0.3010
-4.1922 fees	-0.3010
-4.1922 feet	-0.3010
-4.1922 fell	-0.3010
-4.1922 felt	-0.3010
-4.1922 fever	-0.3010
-4.1922 few	-0.3010
-4.1922 fewer	-0.3010
-4.1922 fickling	-0.3010
-4.1922 fidelity	-0.3010
-4.1922 field	-0.3010
-4.1922 fields	-0.3010
-4.1922 fifteen	-0.3010
-4.1922 fifteenth	-0.3010
-4.1922 fifth	-0.3010
-4.1922 fifties	-0.3010
-4.1922 fifty	-0.3010
-4.1922 fight	-0.3010
-4.1922 fighting	-0.3010
-4.1922 figure	-0.3010
-4.1922 figured	-0.3010
-4.1922 figures	-0.3010
-4.1922 file	-0.3010
-4.1922 filed	-0.3010
-4.1922 files	-0.3010
-4.1922 filing	-0.3010
-4.1922 filings	-0.3010
-4.1922 fill	-0.3010
-4.1922 filled	-0.3010
-4.1922 film	-0.3010
-4.1922 final	-0.3010
-4.1922 finally	-0.3010
-4.1922 finance	-0.3010
-4.1922 financed	-0.3010
-4.1922 financial	-0.3010
-4.1922 financier	-0.3010
-4.1922 financiers	-0.3010
-4.1922 financing	-0.3010
-4.1922 find	-0.3010
-4.1922 finding	-0.3010
-4.1922 findings	-0.3010
-4.1922 fine	-0.3010
-4.1922 fined	-0.3010
-4.1922 fines	-0.3010
-4.1922 finish	-0.3010
-4.1922 finished	-0.3010
-4.1922 finishing	-0.3010
-4.1922 fire	-0.3010
-4.1922 fired	-0.3010
-4.1922 firm	-0.3010
-4.1922 firm's	-0.3010
-4.1922 firmed	-0.3010
-4.1922 firms	-0.3010
-4.1922 first	-0.3010
-4.1922 fiscal	-0.3010
-4.1922 fish	-0.3010
-4.1922 fisher	-0.3010
-4.1922 fisons	-0.3010
-4.1922 five	-0.3010
-4.1922 fixed	-0.3010
-4.1922 fizzled	-0.3010
-4.1922 flat	-0.3010
-4.1922 fleet	-0.3010
-4.1922 fleming	-0.3010
-4.1922 flew	-0.3010
-4.1922 flexibility	-0.3010
-4.1922 flight	-0.3010
-4.1922 flights	-0.3010
-4.1922 floating	-0.3010
-4.1922 flood	-0.3010
-4.1922 floor	-0.3010
-4.1922 florida	-0.3010
-4.1922 flow	-0.3010
-4.1922 flown	-0.3010
-4.1922 flows	-0.3010
-4.1922 fluctuations	-0.3010
-4.1922 fly	-0.3010
-4.1922 flynn	-0.3010
-4.1922 focus	-0.3010
-4.1922 focused	-0.3010
-4.1922 focusing	-0.3010
-4.1922 follow	-0.3010
-4.1922 followed	-0.3010
-4.1922 following	-0.3010
-4.1922 follows	-0.3010
-4.1922 food	-0.3010
-4.1922 foods	-0.3010
-4.1922 fooling	-0.3010
-4.1922 foot	-0.3010
-4.1922 football	-0.3010
-4.1922 for	-0.3010
-4.1922 force	-0.3010
-4.1922 forced	-0.3010
-4.1922 forces	-0.3010
-4.1922 forcing	-0.3010
-4.1922 ford	-0.3010
-4.1922 ford's	-0.3010
-4.1922 forecast	-0.3010
-4.1922 forecasting	-0.3010
-4.1922 forecasts	-0.3010
-4.1922 foreign	-0.3010
-4.1922 foreigners	-0.3010
-4.1922 forest	-0.3010
-4.1922 forever	-0.3010
-4.1922 forget	-0.3010
-4.1922 form	-0.3010
-4.1922 formal	-0.3010
-4.1922 formally	-0.3010
-4.1922 formation	-0.3010
-4.1922 formed	-0.3010
-4.1922 former	-0.3010
-4.1922 formerly	-0.3010
-4.1922 forms	-0.3010
-4.1922 formula	-0.3010
-4.1922 fort	-0.3010
-4.1922 forties	-0.3010
-4.1922 forty	-0.3010
-4.1922 forward	-0.3010
-4.1922 forwards	-0.3010
-4.1922 found	-0.3010
-4.1922 foundation	-0.3010
-4.1922 founded	-0.3010
-4.1922 four	-0.3010
-4.1922 fourteen	-0.3010
-4.1922 fourteenth	-0.3010
-4.1922 fourth	-0.3010
-4.1922 fox	-0.3010
-4.1922 fraction	-0.3010
-4.1922 france	-0.3010
-4.1922 france's	-0.3010
-4.1922 francisco	-0.3010
-4.1922 francs	-0.3010
-4.1922 frankfurt	-0.3010
-4.1922 franklin	-0.3010
-4.1922 fraud	-0.3010
-4.1922 free	-0.3010
-4.1922 freedom	-0.3010
-4.1922 freeman	-0.3010
-4.1922 freeze	-0.3010
-4.1922 freezes	-0.3010
-4.1922 french	-0.3010
-4.1922 frequent	-0.3010
-4.1922 frequently	-0.3010
-4.1922 fresh	-0.3010
-4.1922 friday	-0.3010
-4.1922 friday's	-0.3010
-4.1922 fridson	-0.3010
-4.1922 friendly	-0.3010
-4.1922 friends	-0.3010
-4.1922 from	-0.3010
-4.1922 front	-0.3010
-4.1922 frontier	-0.3010
-4.1922 fruit	-0.3010
-4.1922 fuel	-0.3010
-4.1922 fueled	-0.3010
-4.1922 full	-0.3010
-4.1922 fuller	-0.3010
-4.1922 fully	-0.3010
-4.1922 fulton	-0.3010
-4.1922 function	-0.3010
-4.1922 fund	-0.3010
-4.1922 fundamental	-0.3010
-4.1922 fundamentals	-0.3010
-4.1922 funded	-0.3010
-4.1922 funding	-0.3010
-4.1922 funds	-0.3010
-4.1922 furniture	-0.3010
-4.1922 further	-0.3010
-4.1922 furthermore	-0.3010
-4.1922 future	-0.3010
-4.1922 futures	-0.3010
-4.1922 g.	-0.3010
-4.1922 gain	-0.3010
-4.1922 gained	-0.3010
-4.1922 gainers	-0.3010
-4.1922 gaining	-0.3010
-4.1922 gains	-0.3010
-4.1922 gallon	-0.3010
-4.1922 gambling	-0.3010
-4.1922 game	-0.3010
-4.1922 games	-0.3010
-4.1922 gap	-0.3010
-4.1922 gary	-0.3010
-4.1922 gas	-0.3010
-4.1922 gas's	-0.3010
-4.1922 gasoline	-0.3010
-4.1922 gates	-0.3010
-4.1922 gathered	-0.3010
-4.1922 gathering	-0.3010
-4.1922 gave	-0.3010
-4.1922 gencorp	-0.3010
-4.1922 genentech	-0.3010
-4.1922 general	-0.3010
-4.1922 generally	-0.3010
-4.1922 generate	-0.3010
-4.1922 generated	-0.3010
-4.1922 generation	-0.3010
-4.1922 generator	-0.3010
-4.1922 generic	-0.3010
-4.1922 generous	-0.3010
-4.1922 geneva	-0.3010
-4.1922 gentle	-0.3010
-4.1922 geographical	-0.3010
-4.1922 george	-0.3010
-4.1922 georgia	-0.3010
-4.1922 german	-0.3010
-4.1922 germany	-0.3010
-4.1922 germany's	-0.3010
-4.1922 gero	-0.3010
-4.1922 gesture	-0.3010
-4.1922 get	-0.3010
-4.1922 gets	-0.3010
-4.1922 getting	-0.3010
-4.1922 giant	-0.3010
-4.1922 gillette	-0.3010
-4.1922 girl	-0.3010
-4.1922 give	-0.3010
-4.1922 given	-0.3010
-4.1922 gives	-0.3010
-4.1922 giving	-0.3010
-4.1922 global	-0.3010
-4.1922 go	-0.3010
-4.1922 goal	-0.3010
-4.1922 goals	-0.3010
-4.1922 goes	-0.3010
-4.1922 going	-0.3010
-4.1922 gold	-0.3010
-4.1922 golden	-0.3010
-4.1922 goldman	-0.3010
-4.1922 goldstein	-0.3010
-4.1922 gone	-0.3010
-4.1922 good	-0.3010
-4.1922 goods	-0.3010
-4.1922 goodyear	-0.3010
-4.1922 got	-0.3010
-4.1922 governing	-0.3010
-4.1922 government	-0.3010
-4.1922 government's	-0.3010
-4.1922 governmental	-0.3010
-4.1922 governments	-0.3010
-4.1922 governor	-0.3010
-4.1922 governors	-0.3010
-4.1922 graco	-0.3010
-4.1922 grade	-0.3010
-4.1922 gradually	-0.3010
-4.1922 graduate	-0.3010
-4.1922 grain	-0.3010
-4.1922 gramm	-0.3010
-4.1922 grand	-0.3010
-4.1922 grant	-0.3010
-4.1922 granted	-0.3010
-4.1922 grants	-0.3010
-4.1922 graphics	-0.3010
-4.1922 gray	-0.3010
-4.1922 great	-0.3010
-4.1922 greater	-0.3010
-4.1922 greatest	-0.3010
-4.1922 greatly	-0.3010
-4.1922 greek	-0.3010
-4.1922 green	-0.3010
-4.1922 greenberg	-0.3010
-4.1922 greene	-0.3010
-4.1922 greensboro	-0.3010
-4.1922 greenspan	-0.3010
-4.1922 greenwich	-0.3010
-4.1922 gregory	-0.3010
-4.1922 grenfell	-0.3010
-4.1922 grew	-0.3010
-4.1922 grocery	-0.3010
-4.1922 gross	-0.3010
-4.1922 ground	-0.3010
-4.1922 groundwater	-0.3010
-4.1922 group	-0.3010
-4.1922 group's	-0.3010
-4.1922 groups	-0.3010
-4.1922 groused	-0.3010
-4.1922 grow	-0.3010
-4.1922 growing	-0.3010
-4.1922 grown	-0.3010
-4.1922 growth	-0.3010
-4.1922 grubman	-0.3010
-4.1922 guarantee	-0.3010
-4.1922 guaranteed	-0.3010
-4.1922 guarantees	-0.3010
-4.1922 guess	-0.3010
-4.1922 guide	-0.3010
-4.1922 guilty	-0.3010
-4.1922 gulf	-0.3010
-4.1922 gun	-0.3010
-4.1922 guns	-0.3010
-4.1922 guy	-0.3010
-4.1922 guys	-0.3010
-4.1922 h.	-0.3010
-4.1922 had	-0.3010
-4.1922 hadn't	-0.3010
-4.1922 haft	-0.3010
-4.1922 hafts	-0.3010
-4.1922 hair	-0.3010
-4.1922 half	-0.3010
-4.1922 hall	-0.3010
-4.1922 halt	-0.3010
-4.1922 halted	-0.3010
-4.1922 hamilton	-0.3010
-4.1922 hammer	-0.3010
-4.1922 hampshire	-0.3010
-4.1922 hand	-0.3010
-4.1922 handful	-0.3010
-4.1922 handle	-0.3010
-4.1922 handled	-0.3010
-4.1922 handling	-0.3010
-4.1922 hands	-0.3010
-4.1922 hang	-0.3010
-4.1922 hanson	-0.3010
-4.1922 happen	-0.3010
-4.1922 happened	-0.3010
-4.1922 happening	-0.3010
-4.1922 happens	-0.3010
-4.1922 happy	-0.3010
-4.1922 harbor	-0.3010
-4.1922 hard	-0.3010
-4.1922 harder	-0.3010
-4.1922 hardly	-0.3010
-4.1922 hardware	-0.3010
-4.1922 harold	-0.3010
-4.1922 harris	-0.3010
-4.1922 harris's	-0.3010
-4.1922 harry	-0.3010
-4.1922 hart	-0.3010
-4.1922 hartford	-0.3010
-4.1922 has	-0.3010
-4.1922 hasn't	-0.3010
-4.1922 hauling	-0.3010
-4.1922 have	-0.3010
-4.1922 haven	-0.3010
-4.1922 haven't	-0.3010
-4.1922 havilland	-0.3010
-4.1922 having	-0.3010
-4.1922 hawaii	-0.3010
-4.1922 hawley's	-0.3010
-4.1922 hazardous	-0.3010
-4.1922 he	-0.3010
-4.1922 he'll	-0.3010
-4.1922 he's	-0.3010
-4.1922 head	-0.3010
-4.1922 headed	-0.3010
-4.1922 headquarters	-0.3010
-4.1922 heads	-0.3010
-4.1922 health	-0.3010
-4.1922 healthy	-0.3010
-4.1922 hear	-0.3010
-4.1922 heard	-0.3010
-4.1922 hearing	-0.3010
-4.1922 hearings	-0.3010
-4.1922 heat	-0.3010
-4.1922 heating	-0.3010
-4.1922 heavily	-0.3010
-4.1922 heavy	-0.3010
-4.1922 hedge	-0.3010
-4.1922 hedges	-0.3010
-4.1922 hefty	-0.3010
-4.1922 held	-0.3010
-4.1922 help	-0.3010
-4.1922 helped	-0.3010
-4.1922 helping	-0.3010
-4.1922 helps	-0.3010
-4.1922 henley	-0.3010
-4.1922 henley's	-0.3010
-4.1922 henry	-0.3010
-4.1922 her	-0.3010
-4.1922 herbert	-0.3010
-4.1922 here	-0.3010
-4.1922 heyday	-0.3010
-4.1922 high	-0.3010
-4.1922 higher	-0.3010
-4.1922 highest	-0.3010
-4.1922 highly	-0.3010
-4.1922 highs	-0.3010
-4.1922 hike	-0.3010
-4.1922 hill	-0.3010
-4.1922 hills	-0.3010
-4.1922 hilton	-0.3010
-4.1922 him	-0.3010
-4.1922 himself	-0.3010
-4.1922 hinges	-0.3010
-4.1922 hired	-0.3010
-4.1922 hiring	-0.3010
-4.1922 his	-0.3010
-4.1922 historical	-0.3010
-4.1922 historically	-0.3010
-4.1922 history	-0.3010
-4.1922 hit	-0.3010
-4.1922 hoagland	-0.3010
-4.1922 hold	-0.3010
-4.1922 holder	-0.3010
-4.1922 holders	-0.3010
-4.1922 holding	-0.3010
-4.1922 holdings	-0.3010
-4.1922 holds	-0.3010
-4.1922 holiday	-0.3010
-4.1922 holland	-0.3010
-4.1922 holly	-0.3010
-4.1922 hollywood	-0.3010
-4.1922 holmes	-0.3010
-4.1922 home	-0.3010
-4.1922 homes	-0.3010
-4.1922 honda	-0.3010
-4.1922 honda's	-0.3010
-4.1922 honeywell	-0.3010
-4.1922 hong	-0.3010
-4.1922 honoring	-0.3010
-4.1922 hope	-0.3010
-4.1922 hopeful	-0.3010
-4.1922 hopes	-0.3010
-4.1922 hoping	-0.3010
-4.1922 horizon	-0.3010
-4.1922 horse	-0.3010
-4.1922 hospital	-0.3010
-4.1922 hospitals	-0.3010
-4.1922 hostile	-0.3010
-4.1922 hot	-0.3010
-4.1922 hotel	-0.3010
-4.1922 hotels	-0.3010
-4.1922 hour	-0.3010
-4.1922 hourly	-0.3010
-4.1922 hours	-0.3010
-4.1922 house	-0.3010
-4.1922 household	-0.3010
-4.1922 households	-0.3010
-4.1922 houses	-0.3010
-4.1922 housing	-0.3010
-4.1922 houston	-0.3010
-4.1922 hover	-0.3010
-4.1922 how	-0.3010
-4.1922 howard	-0.3010
-4.1922 however	-0.3010
-4.1922 hud	-0.3010
-4.1922 hudson	-0.3010
-4.1922 huge	-0.3010
-4.1922 human	-0.3010
-4.1922 hundred	-0.3010
-4.1922 hungry	-0.3010
-4.1922 hunkering	-0.3010
-4.1922 hunting	-0.3010
-4.1922 hurt	-0.3010
-4.1922 hutton	-0.3010
-4.1922 hutton's	-0.3010
-4.1922 hypocritical	-0.3010
-4.1922 hyundai	-0.3010
-4.1922 i	-0.3010
-4.1922 i'd	-0.3010
-4.1922 i'll	-0.3010
-4.1922 i'm	-0.3010
-4.1922 i've	-0.3010
-4.1922 i.	-0.3010
-4.1922 icahn	-0.3010
-4.1922 idaho	-0.3010
-4.1922 idea	-0.3010
-4.1922 ideas	-0.3010
-4.1922 identified	-0.3010
-4.1922 identifies	-0.3010
-4.1922 identify	-0.3010
-4.1922 identity	-0.3010
-4.1922 if	-0.3010
-4.1922 ignited	-0.3010
-4.1922 illinois	-0.3010
-4.1922 illustrated	-0.3010
-4.1922 ilsley	-0.3010
-4.1922 immediate	-0.3010
-4.1922 immediately	-0.3010
-4.1922 immigration	-0.3010
-4.1922 imminent	-0.3010
-4.1922 immune	-0.3010
-4.1922 impact	-0.3010
-4.1922 impending	-0.3010
-4.1922 imperial	-0.3010
-4.1922 implement	-0.3010
-4.1922 import	-0.3010
-4.1922 important	-0.3010
-4.1922 imported	-0.3010
-4.1922 importers	-0.3010
-4.1922 importing	-0.3010
-4.1922 imports	-0.3010
-4.1922 impose	-0.3010
-4.1922 imposed	-0.3010
-4.1922 impossible	-0.3010
-4.1922 impressed	-0.3010
-4.1922 impressive	-0.3010
-4.1922 improper	-0.3010
-4.1922 improve	-0.3010
-4.1922 improved	-0.3010
-4.1922 improvement	-0.3010
-4.1922 improvements	-0.3010
-4.1922 improving	-0.3010
-4.1922 in	-0.3010
-4.1922 inaccurate	-0.3010
-4.1922 inadequate	-0.3010
-4.1922 incentive	-0.3010
-4.1922 incentives	-0.3010
-4.1922 inched	-0.3010
-4.1922 include	-0.3010
-4.1922 included	-0.3010
-4.1922 includes	-0.3010
-4.1922 including	-0.3010
-4.1922 income	-0.3010
-4.1922 incorporated	-0.3010
-4.1922 incorporated's	-0.3010
-4.1922 incorrect	-0.3010
-4.1922 increase	-0.3010
-4.1922 increased	-0.3010
-4.1922 increases	-0.3010
-4.1922 increasing	-0.3010
-4.1922 increasingly	-0.3010
-4.1922 incur	-0.3010
-4.1922 indeed	-0.3010
-4.1922 indemnification	-0.3010
-4.1922 independence	-0.3010
-4.1922 independent	-0.3010
-4.1922 index	-0.3010
-4.1922 index's	-0.3010
-4.1922 indexed	-0.3010
-4.1922 indexes	-0.3010
-4.1922 india	-0.3010
-4.1922 indian	-0.3010
-4.1922 indicate	-0.3010
-4.1922 indicated	-0.3010
-4.1922 indicates	-0.3010
-4.1922 indicating	-0.3010
-4.1922 indication	-0.3010
-4.1922 indications	-0.3010
-4.1922 indicator	-0.3010
-4.1922 indicators	-0.3010
-4.1922 indicted	-0.3010
-4.1922 individual	-0.3010
-4.1922 individuals	-0.3010
-4.1922 industrial	-0.3010
-4.1922 industrials	-0.3010
-4.1922 industries	-0.3010
-4.1922 industry	-0.3010
-4.1922 industry's	-0.3010
-4.1922 inevitable	-0.3010
-4.1922 infinite	-0.3010
-4.1922 inflation	-0.3010
-4.1922 inflationary	-0.3010
-4.1922 influence	-0.3010
-4.1922 informal	-0.3010
-4.1922 information	-0.3010
-4.1922 informed	-0.3010
-4.1922 initial	-0.3010
-4.1922 initially	-0.3010
-4.1922 initiative	-0.3010
-4.1922 injunction	-0.3010
-4.1922 injunctions	-0.3010
-4.1922 injured	-0.3010
-4.1922 injury	-0.3010
-4.1922 inmont	-0.3010
-4.1922 inquiries	-0.3010
-4.1922 inquiry	-0.3010
-4.1922 inside	-0.3010
-4.1922 insider	-0.3010
-4.1922 insiders	-0.3010
-4.1922 insists	-0.3010
-4.1922 inspections	-0.3010
-4.1922 instance	-0.3010
-4.1922 instead	-0.3010
-4.1922 institute	-0.3010
-4.1922 institution	-0.3010
-4.1922 institution's	-0.3010
-4.1922 institutional	-0.3010
-4.1922 institutions	-0.3010
-4.1922 institutions'	-0.3010
-4.1922 instruments	-0.3010
-4.1922 instruments'	-0.3010
-4.1922 insurance	-0.3010
-4.1922 insured	-0.3010
-4.1922 insurer	-0.3010
-4.1922 insurers	-0.3010
-4.1922 intact	-0.3010
-4.1922 integrated	-0.3010
-4.1922 intel	-0.3010
-4.1922 intend	-0.3010
-4.1922 intended	-0.3010
-4.1922 intends	-0.3010
-4.1922 intense	-0.3010
-4.1922 intensified	-0.3010
-4.1922 intensify	-0.3010
-4.1922 intent	-0.3010
-4.1922 intention	-0.3010
-4.1922 interagency	-0.3010
-4.1922 interest	-0.3010
-4.1922 interested	-0.3010
-4.1922 interests	-0.3010
-4.1922 interfirst	-0.3010
-4.1922 interim	-0.3010
-4.1922 interior	-0.3010
-4.1922 intermediate	-0.3010
-4.1922 intermet	-0.3010
-4.1922 internal	-0.3010
-4.1922 international	-0.3010
-4.1922 international's	-0.3010
-4.1922 interpretation	-0.3010
-4.1922 interstate	-0.3010
-4.1922 intervention	-0.3010
-4.1922 interview	-0.3010
-4.1922 interviewed	-0.3010
-4.1922 interviews	-0.3010
-4.1922 into	-0.3010
-4.1922 intraday	-0.3010
-4.1922 introduced	-0.3010
-4.1922 inventories	-0.3010
-4.1922 inventory	-0.3010
-4.1922 invest	-0.3010
-4.1922 invested	-0.3010
-4.1922 investigation	-0.3010
-4.1922 investigations	-0.3010
-4.1922 investigators	-0.3010
-4.1922 investing	-0.3010
-4.1922 investment	-0.3010
-4.1922 investments	-0.3010
-4.1922 investor	-0.3010
-4.1922 investor's	-0.3010
-4.1922 investors	-0.3010
-4.1922 investors'	-0.3010
-4.1922 invests	-0.3010
-4.1922 invited	-0.3010
-4.1922 inviting	-0.3010
-4.1922 involve	-0.3010
-4.1922 involved	-0.3010
-4.1922 involvement	-0.3010
-4.1922 involving	-0.3010
-4.1922 iowa	-0.3010
-4.1922 iran	-0.3010
-4.1922 iran's	-0.3010
-4.1922 iranian	-0.3010
-4.1922 iron	-0.3010
-4.1922 ironically	-0.3010
-4.1922 irrelevant	-0.3010
-4.1922 is	-0.3010
-4.1922 isn't	-0.3010
-4.1922 israel	-0.3010
-4.1922 issue	-0.3010
-4.1922 issued	-0.3010
-4.1922 issuers	-0.3010
-4.1922 issues	-0.3010
-4.1922 issuing	-0.3010
-4.1922 it	-0.3010
-4.1922 it's	-0.3010
-4.1922 italian	-0.3010
-4.1922 italy	-0.3010
-4.1922 item	-0.3010
-4.1922 items	-0.3010
-4.1922 itoh	-0.3010
-4.1922 its	-0.3010
-4.1922 itself	-0.3010
-4.1922 j.	-0.3010
-4.1922 jack	-0.3010
-4.1922 jackson	-0.3010
-4.1922 jackson's	-0.3010
-4.1922 jacobs	-0.3010
-4.1922 james	-0.3010
-4.1922 jamming	-0.3010
-4.1922 january	-0.3010
-4.1922 japan	-0.3010
-4.1922 japan's	-0.3010
-4.1922 japanese	-0.3010
-4.1922 javelin	-0.3010
-4.1922 jay	-0.3010
-4.1922 jean	-0.3010
-4.1922 jeffrey	-0.3010
-4.1922 jenrette	-0.3010
-4.1922 jersey	-0.3010
-4.1922 jesse	-0.3010
-4.1922 jet	-0.3010
-4.1922 jewelry	-0.3010
-4.1922 jim	-0.3010
-4.1922 jimmy	-0.3010
-4.1922 job	-0.3010
-4.1922 jobs	-0.3010
-4.1922 joe	-0.3010
-4.1922 john	-0.3010
-4.1922 johnson	-0.3010
-4.1922 join	-0.3010
-4.1922 joined	-0.3010
-4.1922 joining	-0.3010
-4.1922 joint	-0.3010
-4.1922 jointly	-0.3010
-4.1922 jointness	-0.3010
-4.1922 jones	-0.3010
-4.1922 jose	-0.3010
-4.1922 joseph	-0.3010
-4.1922 journal	-0.3010
-4.1922 journal's	-0.3010
-4.1922 journalists	-0.3010
-4.1922 judge	-0.3010
-4.1922 judges	-0.3010
-4.1922 judgment	-0.3010
-4.1922 juggernaut	-0.3010
-4.1922 jujo	-0.3010
-4.1922 july	-0.3010
-4.1922 jump	-0.3010
-4.1922 jumped	-0.3010
-4.1922 june	-0.3010
-4.1922 junior	-0.3010
-4.1922 junk	-0.3010
-4.1922 jury	-0.3010
-4.1922 just	-0.3010
-4.1922 justice	-0.3010
-4.1922 justices	-0.3010
-4.1922 k.	-0.3010
-4.1922 kansas	-0.3010
-4.1922 katzenbach	-0.3010
-4.1922 keen	-0.3010
-4.1922 keep	-0.3010
-4.1922 keeping	-0.3010
-4.1922 keller's	-0.3010
-4.1922 kellogg	-0.3010
-4.1922 kelly	-0.3010
-4.1922 kelly's	-0.3010
-4.1922 kemp	-0.3010
-4.1922 kennedy	-0.3010
-4.1922 kenneth	-0.3010
-4.1922 kept	-0.3010
-4.1922 key	-0.3010
-4.1922 kidder	-0.3010
-4.1922 kids	-0.3010
-4.1922 killed	-0.3010
-4.1922 kind	-0.3010
-4.1922 kinds	-0.3010
-4.1922 king	-0.3010
-4.1922 kingon	-0.3010
-4.1922 klein	-0.3010
-4.1922 knew	-0.3010
-4.1922 knight	-0.3010
-4.1922 knopf	-0.3010
-4.1922 know	-0.3010
-4.1922 knowing	-0.3010
-4.1922 knowledge	-0.3010
-4.1922 known	-0.3010
-4.1922 knows	-0.3010
-4.1922 kodak	-0.3010
-4.1922 kohlberg	-0.3010
-4.1922 kong	-0.3010
-4.1922 korea	-0.3010
-4.1922 korea's	-0.3010
-4.1922 korean	-0.3010
-4.1922 kravis	-0.3010
-4.1922 kringen	-0.3010
-4.1922 kroger	-0.3010
-4.1922 kubiak	-0.3010
-4.1922 kudlow	-0.3010
-4.1922 kudos	-0.3010
-4.1922 kyocera	-0.3010
-4.1922 l.	-0.3010
-4.1922 la	-0.3010
-4.1922 labor	-0.3010
-4.1922 labrecque	-0.3010
-4.1922 lack	-0.3010
-4.1922 lackluster	-0.3010
-4.1922 laenderbank	-0.3010
-4.1922 laid	-0.3010
-4.1922 lake	-0.3010
-4.1922 lambert	-0.3010
-4.1922 land	-0.3010
-4.1922 landing	-0.3010
-4.1922 language	-0.3010
-4.1922 large	-0.3010
-4.1922 largely	-0.3010
-4.1922 larger	-0.3010
-4.1922 largest	-0.3010
-4.1922 las	-0.3010
-4.1922 lasky	-0.3010
-4.1922 last	-0.3010
-4.1922 late	-0.3010
-4.1922 lately	-0.3010
-4.1922 later	-0.3010
-4.1922 latest	-0.3010
-4.1922 latin	-0.3010
-4.1922 launch	-0.3010
-4.1922 launched	-0.3010
-4.1922 law	-0.3010
-4.1922 law's	-0.3010
-4.1922 lawmakers	-0.3010
-4.1922 lawrence	-0.3010
-4.1922 laws	-0.3010
-4.1922 lawsuit	-0.3010
-4.1922 lawsuits	-0.3010
-4.1922 lawyer	-0.3010
-4.1922 lawyers	-0.3010
-4.1922 layoffs	-0.3010
-4.1922 lead	-0.3010
-4.1922 leader	-0.3010
-4.1922 leaders	-0.3010
-4.1922 leadership	-0.3010
-4.1922 leading	-0.3010
-4.1922 league	-0.3010
-4.1922 learn	-0.3010
-4.1922 learned	-0.3010
-4.1922 lease	-0.3010
-4.1922 leases	-0.3010
-4.1922 leasing	-0.3010
-4.1922 least	-0.3010
-4.1922 leave	-0.3010
-4.1922 leaves	-0.3010
-4.1922 leaving	-0.3010
-4.1922 led	-0.3010
-4.1922 lee	-0.3010
-4.1922 leery	-0.3010
-4.1922 left	-0.3010
-4.1922 legal	-0.3010
-4.1922 legislation	-0.3010
-4.1922 legislators	-0.3010
-4.1922 legislature	-0.3010
-4.1922 legitimate	-0.3010
-4.1922 lehman	-0.3010
-4.1922 lehman's	-0.3010
-4.1922 lehrer	-0.3010
-4.1922 lend	-0.3010
-4.1922 lenders	-0.3010
-4.1922 lending	-0.3010
-4.1922 lengthy	-0.3010
-4.1922 lennar	-0.3010
-4.1922 leonard	-0.3010
-4.1922 less	-0.3010
-4.1922 let	-0.3010
-4.1922 let's	-0.3010
-4.1922 lethargic	-0.3010
-4.1922 letter	-0.3010
-4.1922 letting	-0.3010
-4.1922 level	-0.3010
-4.1922 levels	-0.3010
-4.1922 leverage	-0.3010
-4.1922 leveraged	-0.3010
-4.1922 levine	-0.3010
-4.1922 levy	-0.3010
-4.1922 liabilities	-0.3010
-4.1922 liability	-0.3010
-4.1922 license	-0.3010
-4.1922 licensing	-0.3010
-4.1922 lie	-0.3010
-4.1922 life	-0.3010
-4.1922 lift	-0.3010
-4.1922 lifted	-0.3010
-4.1922 light	-0.3010
-4.1922 lightning	-0.3010
-4.1922 lights	-0.3010
-4.1922 like	-0.3010
-4.1922 likely	-0.3010
-4.1922 lilco's	-0.3010
-4.1922 limit	-0.3010
-4.1922 limited	-0.3010
-4.1922 limiting	-0.3010
-4.1922 limits	-0.3010
-4.1922 lincoln	-0.3010
-4.1922 line	-0.3010
-4.1922 lines	-0.3010
-4.1922 lining	-0.3010
-4.1922 link	-0.3010
-4.1922 linked	-0.3010
-4.1922 links	-0.3010
-4.1922 lippmann	-0.3010
-4.1922 liquid	-0.3010
-4.1922 liquidity	-0.3010
-4.1922 list	-0.3010
-4.1922 listed	-0.3010
-4.1922 listing	-0.3010
-4.1922 lists	-0.3010
-4.1922 liter	-0.3010
-4.1922 litigation	-0.3010
-4.1922 little	-0.3010
-4.1922 live	-0.3010
-4.1922 lived	-0.3010
-4.1922 lives	-0.3010
-4.1922 living	-0.3010
-4.1922 lloyd	-0.3010
-4.1922 load	-0.3010
-4.1922 loan	-0.3010
-4.1922 loans	-0.3010
-4.1922 lobbied	-0.3010
-4.1922 local	-0.3010
-4.1922 located	-0.3010
-4.1922 location	-0.3010
-4.1922 lock	-0.3010
-4.1922 locked	-0.3010
-4.1922 log	-0.3010
-4.1922 logic	-0.3010
-4.1922 london	-0.3010
-4.1922 london's	-0.3010
-4.1922 long	-0.3010
-4.1922 longer	-0.3010
-4.1922 longest	-0.3010
-4.1922 longitudinal	-0.3010
-4.1922 look	-0.3010
-4.1922 looked	-0.3010
-4.1922 looking	-0.3010
-4.1922 looks	-0.3010
-4.1922 los	-0.3010
-4.1922 lose	-0.3010
-4.1922 losers	-0.3010
-4.1922 losing	-0.3010
-4.1922 loss	-0.3010
-4.1922 losses	-0.3010
-4.1922 lost	-0.3010
-4.1922 lot	-0.3010
-4.1922 lots	-0.3010
-4.1922 louis	-0.3010
-4.1922 louisiana	-0.3010
-4.1922 love	-0.3010
-4.1922 low	-0.3010
-4.1922 lower	-0.3010
-4.1922 lowered	-0.3010
-4.1922 lowering	-0.3010
-4.1922 lowest	-0.3010
-4.1922 lows	-0.3010
-4.1922 lucky	-0.3010
-4.1922 lufkin	-0.3010
-4.1922 lumber	-0.3010
-4.1922 lunch	-0.3010
-4.1922 lynch	-0.3010
-4.1922 m.	-0.3010
-4.1922 m.'s	-0.3010
-4.1922 machine	-0.3010
-4.1922 machinery	-0.3010
-4.1922 machines	-0.3010
-4.1922 machinists	-0.3010
-4.1922 mack	-0.3010
-4.1922 macke	-0.3010
-4.1922 macmillan	-0.3010
-4.1922 macmillan's	-0.3010
-4.1922 mad	-0.3010
-4.1922 made	-0.3010
-4.1922 mae	-0.3010
-4.1922 maeda	-0.3010
-4.1922 magazine	-0.3010
-4.1922 magazines	-0.3010
-4.1922 magnify	-0.3010
-4.1922 mail	-0.3010
-4.1922 main	-0.3010
-4.1922 mainly	-0.3010
-4.1922 mainstream	-0.3010
-4.1922 maintain	-0.3010
-4.1922 maintained	-0.3010
-4.1922 maintaining	-0.3010
-4.1922 maintenance	-0.3010
-4.1922 major	-0.3010
-4.1922 majority	-0.3010
-4.1922 make	-0.3010
-4.1922 maker	-0.3010
-4.1922 makers	-0.3010
-4.1922 makes	-0.3010
-4.1922 making	-0.3010
-4.1922 male	-0.3010
-4.1922 malone	-0.3010
-4.1922 man	-0.3010
-4.1922 manage	-0.3010
-4.1922 managed	-0.3010
-4.1922 management	-0.3010
-4.1922 management's	-0.3010
-4.1922 manager	-0.3010
-4.1922 managers	-0.3010
-4.1922 managing	-0.3010
-4.1922 mandate	-0.3010
-4.1922 manhattan	-0.3010
-4.1922 manipulate	-0.3010
-4.1922 manufacture	-0.3010
-4.1922 manufactured	-0.3010
-4.1922 manufacturer	-0.3010
-4.1922 manufacturers	-0.3010
-4.1922 manufacturers'	-0.3010
-4.1922 manufacturing	-0.3010
-4.1922 many	-0.3010
-4.1922 march	-0.3010
-4.1922 margin	-0.3010
-4.1922 marginally	-0.3010
-4.1922 margins	-0.3010
-4.1922 marine	-0.3010
-4.1922 mark	-0.3010
-4.1922 marked	-0.3010
-4.1922 market	-0.3010
-4.1922 market's	-0.3010
-4.1922 marketed	-0.3010
-4.1922 marketing	-0.3010
-4.1922 marketplace	-0.3010
-4.1922 markets	-0.3010
-4.1922 marks	-0.3010
-4.1922 married	-0.3010
-4.1922 marriott	-0.3010
-4.1922 marron	-0.3010
-4.1922 marshall	-0.3010
-4.1922 mart	-0.3010
-4.1922 martin	-0.3010
-2.1878 mary	-1.8367
-4.1922 massachusetts	-0.3010
-4.1922 massive	-0.3010
-4.1922 master	-0.3010
-4.1922 mastercard	-0.3010
-4.1922 match	-0.3010
-4.1922 matched	-0.3010
-4.1922 material	-0.3010
-4.1922 materials	-0.3010
-4.1922 matter	-0.3010
-4.1922 matters	-0.3010
-4.1922 mature	-0.3010
-4.1922 maturing	-0.3010
-4.1922 maturity	-0.3010
-4.1922 maximum	-0.3010
-4.1922 maxwell	-0.3010
-4.1922 may	-0.3010
-4.1922 maybe	-0.3010
-4.1922 maynard	-0.3010
-4.1922 mcdermott	-0.3010
-4.1922 mcdonnell	-0.3010
-4.1922 mcgillicuddy	-0.3010
-4.1922 mcgraw	-0.3010
-4.1922 me	-0.3010
-4.1922 mean	-0.3010
-4.1922 meaning	-0.3010
-4.1922 means	-0.3010
-4.1922 meant	-0.3010
-4.1922 meantime	-0.3010
-4.1922 meanwhile	-0.3010
-4.1922 measure	-0.3010
-4.1922 measured	-0.3010
-4.1922 measures	-0.3010
-4.1922 mechanical	-0.3010
-4.1922 mechanics	-0.3010
-4.1922 media	-0.3010
-4.1922 medical	-0.3010
-4.1922 medium	-0.3010
-4.1922 meet	-0.3010
-4.1922 meeting	-0.3010
-4.1922 meetings	-0.3010
-4.1922 meets	-0.3010
-4.1922 megadeals	-0.3010
-4.1922 member	-0.3010
-4.1922 members	-0.3010
-4.1922 membership	-0.3010
-4.1922 memory	-0.3010
-4.1922 memphis	-0.3010
-4.1922 men	-0.3010
-4.1922 mention	-0.3010
-4.1922 mentioned	-0.3010
-4.1922 merc	-0.3010
-4.1922 mercantile	-0.3010
-4.1922 mercer	-0.3010
-4.1922 merchandise	-0.3010
-4.1922 merely	-0.3010
-4.1922 merger	-0.3010
-4.1922 mergers	-0.3010
-4.1922 merit	-0.3010
-4.1922 merrill	-0.3010
-4.1922 mesa	-0.3010
-4.1922 messenger	-0.3010
-4.1922 met	-0.3010
-4.1922 metal	-0.3010
-4.1922 metals	-0.3010
-4.1922 method	-0.3010
-4.1922 methods	-0.3010
-4.1922 metric	-0.3010
-4.1922 metropolitan	-0.3010
-4.1922 mexican	-0.3010
-4.1922 mexico	-0.3010
-4.1922 meyerman	-0.3010
-4.1922 miami	-0.3010
-4.1922 michael	-0.3010
-4.1922 michaels	-0.3010
-4.1922 michigan	-0.3010
-4.1922 micro	-0.3010
-4.1922 microsoft	-0.3010
-4.1922 mid	-0.3010
-4.1922 midday	-0.3010
-4.1922 middle	-0.3010
-4.1922 mideast	-0.3010
-4.1922 midland	-0.3010
-4.1922 midnight	-0.3010
-4.1922 midst	-0.3010
-4.1922 midweek	-0.3010
-4.1922 midwest	-0.3010
-4.1922 might	-0.3010
-4.1922 milan	-0.3010
-4.1922 mild	-0.3010
-4.1922 mile	-0.3010
-4.1922 miles	-0.3010
-4.1922 military	-0.3010
-4.1922 milken	-0.3010
-4.1922 mill	-0.3010
-4.1922 miller	-0.3010
-4.1922 million	-0.3010
-4.1922 milwaukee	-0.3010
-4.1922 mimic	-0.3010
-4.1922 min	-0.3010
-4.1922 mind	-0.3010
-4.1922 minds	-0.3010
-4.1922 minerals	-0.3010
-4.1922 mines	-0.3010
-4.1922 minimum	-0.3010
-4.1922 mining	-0.3010
-4.1922 minister	-0.3010
-4.1922 ministers	-0.3010
-4.1922 ministry	-0.3010
-4.1922 minneapolis	-0.3010
-4.1922 minnesota	-0.3010
-4.1922 minor	-0.3010
-4.1922 minorities	-0.3010
-4.1922 minority	-0.3010
-4.1922 minus	-0.3010
-4.1922 minute	-0.3010
-4.1922 minutes	-0.3010
-4.1922 mission	-0.3010
-4.1922 missions	-0.3010
-4.1922 misstated	-0.3010
-4.1922 mistake	-0.3010
-4.1922 misunderstood	-0.3010
-4.1922 mitsubishi	-0.3010
-4.1922 mitsui's	-0.3010
-4.1922 mix	-0.3010
-4.1922 mixed	-0.3010
-4.1922 mobile	-0.3010
-4.1922 mode	-0.3010
-4.1922 model	-0.3010
-4.1922 models	-0.3010
-4.1922 moderate	-0.3010
-4.1922 modest	-0.3010
-4.1922 modestly	-0.3010
-4.1922 modify	-0.3010
-4.1922 moment	-0.3010
-4.1922 monday	-0.3010
-4.1922 monday's	-0.3010
-4.1922 monetary	-0.3010
-4.1922 money	-0.3010
-4.1922 monitored	-0.3010
-4.1922 monitors	-0.3010
-4.1922 monolithic	-0.3010
-4.1922 monsanto	-0.3010
-4.1922 monsky	-0.3010
-4.1922 month	-0.3010
-4.1922 month's	-0.3010
-4.1922 monthly	-0.3010
-4.1922 months	-0.3010
-4.1922 montreal	-0.3010
-4.1922 montreal's	-0.3010
-4.1922 mood	-0.3010
-4.1922 moody's	-0.3010
-4.1922 more	-0.3010
-4.1922 moreover	-0.3010
-4.1922 morgan	-0.3010
-4.1922 morning	-0.3010
-4.1922 morris	-0.3010
-4.1922 mortgage	-0.3010
-4.1922 mortgaged	-0.3010
-4.1922 mortgages	-0.3010
-4.1922 morton	-0.3010
-4.1922 moscow	-0.3010
-4.1922 moscow's	-0.3010
-4.1922 most	-0.3010
-4.1922 mostly	-0.3010
-4.1922 mother	-0.3010
-4.1922 motion	-0.3010
-4.1922 motivates	-0.3010
-4.1922 motor	-0.3010
-4.1922 motorola	-0.3010
-4.1922 motors	-0.3010
-4.1922 mountain	-0.3010
-4.1922 move	-0.3010
-4.1922 moved	-0.3010
-4.1922 movement	-0.3010
-4.1922 movements	-0.3010
-4.1922 moves	-0.3010
-4.1922 movie	-0.3010
-4.1922 moving	-0.3010
-4.1922 mr.	-0.3010
-4.1922 mrs.	-0.3010
-4.1922 ms.	-0.3010
-4.1922 much	-0.3010
-4.1922 muddle	-0.3010
-4.1922 multimillion	-0.3010
-4.1922 multinational	-0.3010
-4.1922 multiple	-0.3010
-4.1922 municipal	-0.3010
-4.1922 murders	-0.3010
-4.1922 murdoch	-0.3010
-4.1922 murphy	-0.3010
-4.1922 murray	-0.3010
-4.1922 murtha	-0.3010
-4.1922 music	-0.3010
-4.1922 must	-0.3010
-4.1922 mutual	-0.3010
-4.1922 my	-0.3010
-4.1922 myself	-0.3010
-4.1922 n.	-0.3010
-4.1922 name	-0.3010
-4.1922 named	-0.3010
-4.1922 nancy	-0.3010
-4.1922 narrow	-0.3010
-4.1922 narrowed	-0.3010
-4.1922 narrower	-0.3010
-4.1922 narrowly	-0.3010
-4.1922 nasdaq	-0.3010
-4.1922 nation	-0.3010
-4.1922 nation's	-0.3010
-4.1922 national	-0.3010
-4.1922 nations	-0.3010
-4.1922 nationwide	-0.3010
-4.1922 nato	-0.3010
-4.1922 natural	-0.3010
-4.1922 naturally	-0.3010
-4.1922 naval	-0.3010
-4.1922 navy	-0.3010
-4.1922 near	-0.3010
-4.1922 nearby	-0.3010
-4.1922 nearly	-0.3010
-4.1922 nebraska	-0.3010
-4.1922 necessarily	-0.3010
-4.1922 necessary	-0.3010
-4.1922 need	-0.3010
-4.1922 needed	-0.3010
-4.1922 needs	-0.3010
-4.1922 negative	-0.3010
-4.1922 negotiate	-0.3010
-4.1922 negotiated	-0.3010
-4.1922 negotiating	-0.3010
-4.1922 negotiations	-0.3010
-4.1922 neighboring	-0.3010
-4.1922 neiman	-0.3010
-4.1922 neither	-0.3010
-4.1922 nervous	-0.3010
-4.1922 net	-0.3010
-4.1922 network	-0.3010
-4.1922 networks	-0.3010
-4.1922 nevada	-0.3010
-4.1922 never	-0.3010
-4.1922 new	-0.3010
-4.1922 newly	-0.3010
-4.1922 newmont	-0.3010
-4.1922 newport	-0.3010
-4.1922 news	-0.3010
-4.1922 newspaper	-0.3010
-4.1922 newspapers	-0.3010
-4.1922 newsprint	-0.3010
-4.1922 next	-0.3010
-4.1922 nicaragua	-0.3010
-4.1922 nicaragua's	-0.3010
-4.1922 nicaraguan	-0.3010
-4.1922 nice	-0.3010
-4.1922 nicholas	-0.3010
-4.1922 nigeria's	-0.3010
-4.1922 night	-0.3010
-4.1922 nikkei	-0.3010
-4.1922 nine	-0.3010
-4.1922 nineteen	-0.3010
-4.1922 nineteenth	-0.3010
-4.1922 nineties	-0.3010
-4.1922 ninety	-0.3010
-4.1922 ninth	-0.3010
-4.1922 nisbet	-0.3010
-4.1922 nissan	-0.3010
-4.1922 no	-0.3010
-4.1922 nobody	-0.3010
-4.1922 non	-0.3010
-4.1922 noncallable	-0.3010
-4.1922 nondurable	-0.3010
-4.1922 none	-0.3010
-4.1922 nonelectrical	-0.3010
-4.1922 nonetheless	-0.3010
-4.1922 nonexclusive	-0.3010
-4.1922 nor	-0.3010
-4.1922 normal	-0.3010
-4.1922 normalcy	-0.3010
-4.1922 normally	-0.3010
-4.1922 north	-0.3010
-4.1922 northeast	-0.3010
-4.1922 northeast's	-0.3010
-4.1922 northern	-0.3010
-4.1922 northern's	-0.3010
-4.1922 northgate	-0.3010
-4.1922 northwest	-0.3010
-4.1922 not	-0.3010
-4.1922 notably	-0.3010
-4.1922 notation	-0.3010
-4.1922 note	-0.3010
-4.1922 noted	-0.3010
-4.1922 notes	-0.3010
-4.1922 nothing	-0.3010
-4.1922 notice	-0.3010
-4.1922 notified	-0.3010
-4.1922 noting	-0.3010
-4.1922 novel	-0.3010
-4.1922 november	-0.3010
-4.1922 now	-0.3010
-4.1922 nuclear	-0.3010
-4.1922 number	-0.3010
-4.1922 numbers	-0.3010
-4.1922 nummi	-0.3010
-4.1922 nursing	-0.3010
-4.1922 o.	-0.3010
-4.1922 object	-0.3010
-4.1922 objective	-0.3010
-4.1922 objectively	-0.3010
-4.1922 obligation	-0.3010
-4.1922 obligations	-0.3010
-4.1922 observers	-0.3010
-4.1922 observes	-0.3010
-4.1922 obstacles	-0.3010
-4.1922 obtain	-0.3010
-4.1922 obtaining	-0.3010
-4.1922 obvious	-0.3010
-4.1922 occasion	-0.3010
-4.1922 occidental	-0.3010
-4.1922 occupied	-0.3010
-4.1922 occur	-0.3010
-4.1922 occurred	-0.3010
-4.1922 october	-0.3010
-4.1922 october's	-0.3010
-4.1922 odd	-0.3010
-4.1922 odyssey	-0.3010
-4.1922 of	-0.3010
-4.1922 off	-0.3010
-4.1922 offer	-0.3010
-4.1922 offered	-0.3010
-4.1922 offering	-0.3010
-4.1922 offerings	-0.3010
-4.1922 offers	-0.3010
-4.1922 office	-0.3010
-4.1922 officer	-0.3010
-4.1922 officers	-0.3010
-4.1922 offices	-0.3010
-4.1922 official	-0.3010
-4.1922 officially	-0.3010
-4.1922 officials	-0.3010
-4.1922 offs	-0.3010
-4.1922 offset	-0.3010
-4.1922 offshore	-0.3010
-4.1922 often	-0.3010
-4.1922 oh	-0.3010
-4.1922 ohio	-0.3010
-4.1922 oil	-0.3010
-4.1922 oklahoma	-0.3010
-4.1922 old	-0.3010
-4.1922 older	-0.3010
-4.1922 olympia	-0.3010
-4.1922 olympics	-0.3010
-4.1922 omaha	-0.3010
-4.1922 ominously	-0.3010
-4.1922 omitted	-0.3010
-4.1922 omitting	-0.3010
-4.1922 on	-0.3010
-4.1922 once	-0.3010
-4.1922 one	-0.3010
-4.1922 one's	-0.3010
-4.1922 ones	-0.3010
-4.1922 only	-0.3010
-4.1922 ontario	-0.3010
-4.1922 onto	-0.3010
-4.1922 opec	-0.3010
-4.1922 opec's	-0.3010
-4.1922 open	-0.3010
-4.1922 opened	-0.3010
-4.1922 opening	-0.3010
-4.1922 openings	-0.3010
-4.1922 operate	-0.3010
-4.1922 operated	-0.3010
-4.1922 operates	-0.3010
-4.1922 operating	-0.3010
-4.1922 operation	-0.3010
-4.1922 operations	-0.3010
-4.1922 operator	-0.3010
-4.1922 operators	-0.3010
-4.1922 opinion	-0.3010
-4.1922 opinions	-0.3010
-4.1922 oppenheimer	-0.3010
-4.1922 opponents	-0.3010
-4.1922 opportunities	-0.3010
-4.1922 opportunity	-0.3010
-4.1922 oppose	-0.3010
-4.1922 opposed	-0.3010
-4.1922 opposes	-0.3010
-4.1922 opposite	-0.3010
-4.1922 opposition	-0.3010
-4.1922 optimism	-0.3010
-4.1922 optimistic	-0.3010
-4.1922 option	-0.3010
-4.1922 options	-0.3010
-4.1922 or	-0.3010
-4.1922 order	-0.3010
-4.1922 orders	-0.3010
-4.1922 ordinaries	-0.3010
-4.1922 oregon	-0.3010
-4.1922 organization	-0.3010
-4.1922 organizations	-0.3010
-4.1922 organized	-0.3010
-4.1922 oriented	-0.3010
-4.1922 original	-0.3010
-4.1922 originally	-0.3010
-4.1922 orleans	-0.3010
-4.1922 other	-0.3010
-4.1922 others	-0.3010
-4.1922 otherwise	-0.3010
-4.1922 ought	-0.3010
-4.1922 ounce	-0.3010
-4.1922 our	-0.3010
-4.1922 ourselves	-0.3010
-4.1922 out	-0.3010
-4.1922 outcome	-0.3010
-4.1922 outlays	-0.3010
-4.1922 outlook	-0.3010
-4.1922 outpaced	-0.3010
-4.1922 output	-0.3010
-4.1922 outright	-0.3010
-4.1922 outs	-0.3010
-4.1922 outset	-0.3010
-4.1922 outside	-0.3010
-4.1922 outsider	-0.3010
-4.1922 outstanding	-0.3010
-4.1922 over	-0.3010
-4.1922 overall	-0.3010
-4.1922 overcome	-0.3010
-4.1922 overhaul	-0.3010
-4.1922 overhead	-0.3010
-4.1922 overheating	-0.3010
-4.1922 overnight	-0.3010
-4.1922 overseas	-0.3010
-4.1922 overshadowed	-0.3010
-4.1922 overstatement	-0.3010
-4.1922 overwhelmingly	-0.3010
-4.1922 owen	-0.3010
-4.1922 owen's	-0.3010
-4.1922 owens	-0.3010
-4.1922 own	-0.3010
-4.1922 owned	-0.3010
-4.1922 owner	-0.3010
-4.1922 owners	-0.3010
-4.1922 ownership	-0.3010
-4.1922 owning	-0.3010
-4.1922 owns	-0.3010
-4.1922 p.	-0.3010
-4.1922 p.'s	-0.3010
-4.1922 pace	-0.3010
-4.1922 pacific	-0.3010
-4.1922 package	-0.3010
-4.1922 packages	-0.3010
-4.1922 pact	-0.3010
-4.1922 pacts	-0.3010
-4.1922 page	-0.3010
-4.1922 pages	-0.3010
-4.1922 paid	-0.3010
-4.1922 painewebber	-0.3010
-4.1922 painful	-0.3010
-4.1922 pains	-0.3010
-4.1922 paint	-0.3010
-4.1922 painting	-0.3010
-4.1922 pan	-0.3010
-4.1922 panel	-0.3010
-4.1922 panel's	-0.3010
-4.1922 panic	-0.3010
-4.1922 panics	-0.3010
-4.1922 panmunjom	-0.3010
-4.1922 paper	-0.3010
-4.1922 papers	-0.3010
-4.1922 paperwork	-0.3010
-4.1922 par	-0.3010
-4.1922 parent	-0.3010
-4.1922 parents	-0.3010
-4.1922 paris	-0.3010
-4.1922 park	-0.3010
-4.1922 parks	-0.3010
-4.1922 part	-0.3010
-4.1922 participants	-0.3010
-4.1922 participate	-0.3010
-4.1922 participation	-0.3010
-4.1922 particular	-0.3010
-4.1922 particularly	-0.3010
-4.1922 parties	-0.3010
-4.1922 partly	-0.3010
-4.1922 partner	-0.3010
-4.1922 partners	-0.3010
-4.1922 partnership	-0.3010
-4.1922 partnership's	-0.3010
-4.1922 partnerships	-0.3010
-4.1922 parts	-0.3010
-4.1922 party	-0.3010
-4.1922 party's	-0.3010
-4.1922 pascutto	-0.3010
-4.1922 pass	-0.3010
-4.1922 passed	-0.3010
-4.1922 passenger	-0.3010
-4.1922 passengers	-0.3010
-4.1922 passive	-0.3010
-4.1922 passport	-0.3010
-4.1922 past	-0.3010
-4.1922 pat	-0.3010
-4.1922 patient	-0.3010
-4.1922 patients	-0.3010
-4.1922 pattern	-0.3010
-4.1922 paul	-0.3010
-4.1922 pay	-0.3010
-4.1922 payable	-0.3010
-4.1922 paying	-0.3010
-4.1922 payment	-0.3010
-4.1922 payments	-0.3010
-4.1922 payout	-0.3010
-4.1922 payroll	-0.3010
-4.1922 pays	-0.3010
-4.1922 peabody	-0.3010
-4.1922 peace	-0.3010
-4.1922 peak	-0.3010
-4.1922 peaks	-0.3010
-4.1922 peers	-0.3010
-4.1922 penalties	-0.3010
-4.1922 penalty	-0.3010
-4.1922 pence	-0.3010
-4.1922 pending	-0.3010
-4.1922 pennsylvania	-0.3010
-4.1922 pennzoil	-0.3010
-4.1922 pension	-0.3010
-4.1922 pentagon	-0.3010
-4.1922 people	-0.3010
-4.1922 peoria	-0.3010
-4.1922 per	-0.3010
-4.1922 percent	-0.3010
-4.1922 percentage	-0.3010
-4.1922 perfect	-0.3010
-4.1922 perform	-0.3010
-4.1922 performance	-0.3010
-4.1922 performed	-0.3010
-4.1922 performer	-0.3010
-4.1922 performing	-0.3010
-4.1922 performs	-0.3010
-4.1922 perhaps	-0.3010
-4.1922 period	-0.3010
-4.1922 period's	-0.3010
-4.1922 perle	-0.3010
-4.1922 permanent	-0.3010
-4.1922 permit	-0.3010
-4.1922 permits	-0.3010
-4.1922 permitting	-0.3010
-4.1922 persian	-0.3010
-4.1922 persisted	-0.3010
-4.1922 persistent	-0.3010
-4.1922 person	-0.3010
-4.1922 personal	-0.3010
-4.1922 personally	-0.3010
-4.1922 personnel	-0.3010
-4.1922 perspective	-0.3010
-4.1922 persuade	-0.3010
-4.1922 peter	-0.3010
-4.1922 petersburg	-0.3010
-4.1922 petite	-0.3010
-4.1922 petition	-0.3010
-4.1922 petrochemical	-0.3010
-4.1922 petroleum	-0.3010
-4.1922 pharmaceutical	-0.3010
-4.1922 pharmaceuticals	-0.3010
-4.1922 phase	-0.3010
-4.1922 phases	-0.3010
-4.1922 phasing	-0.3010
-4.1922 philadelphia	-0.3010
-4.1922 philippine	-0.3010
-4.1922 phillips	-0.3010
-4.1922 phoenix	-0.3010
-4.1922 phone	-0.3010
-4.1922 physical	-0.3010
-4.1922 physiology	-0.3010
-4.1922 picked	-0.3010
-4.1922 pickens	-0.3010
-4.1922 picking	-0.3010
-4.1922 pickup	-0.3010
-4.1922 picture	-0.3010
-4.1922 pictures	-0.3010
-4.1922 piece	-0.3010
-4.1922 piedmont	-0.3010
-4.1922 pill	-0.3010
-4.1922 pillsbury	-0.3010
-4.1922 pillsbury's	-0.3010
-4.1922 pilot	-0.3010
-4.1922 pilots	-0.3010
-4.1922 place	-0.3010
-4.1922 placed	-0.3010
-4.1922 places	-0.3010
-4.1922 placing	-0.3010
-4.1922 plagued	-0.3010
-4.1922 plains	-0.3010
-4.1922 plaintiff	-0.3010
-4.1922 plaintiffs	-0.3010
-4.1922 plan	-0.3010
-4.1922 plane	-0.3010
-4.1922 planes	-0.3010
-4.1922 planned	-0.3010
-4.1922 planners	-0.3010
-4.1922 planning	-0.3010
-4.1922 plans	-0.3010
-4.1922 plant	-0.3010
-4.1922 plants	-0.3010
-4.1922 plaskett	-0.3010
-4.1922 plateaued	-0.3010
-4.1922 platform	-0.3010
-4.1922 platinum	-0.3010
-4.1922 play	-0.3010
-4.1922 played	-0.3010
-4.1922 player	-0.3010
-4.1922 players	-0.3010
-4.1922 playing	-0.3010
-4.1922 plays	-0.3010
-4.1922 pleaded	-0.3010
-4.1922 pleased	-0.3010
-4.1922 plodding	-0.3010
-4.1922 plummeted	-0.3010
-4.1922 plunge	-0.3010
-4.1922 plunged	-0.3010
-4.1922 plus	-0.3010
-4.1922 pohlad	-0.3010
-4.1922 poindexter	-0.3010
-4.1922 poindexter's	-0.3010
-4.1922 point	-0.3010
-4.1922 pointed	-0.3010
-4.1922 points	-0.3010
-4.1922 polaroid	-0.3010
-4.1922 polaroid's	-0.3010
-4.1922 police	-0.3010
-4.1922 policies	-0.3010
-4.1922 policy	-0.3010
-4.1922 political	-0.3010
-4.1922 politically	-0.3010
-4.1922 politicians	-0.3010
-4.1922 politics	-0.3010
-4.1922 poll	-0.3010
-4.1922 polls	-0.3010
-4.1922 pont	-0.3010
-4.1922 pont's	-0.3010
-4.1922 poor	-0.3010
-4.1922 poor's	-0.3010
-4.1922 poorly	-0.3010
-4.1922 pope	-0.3010
-4.1922 popular	-0.3010
-4.1922 popularity	-0.3010
-4.1922 population	-0.3010
-4.1922 portfolio	-0.3010
-4.1922 portfolios	-0.3010
-4.1922 portion	-0.3010
-4.1922 portnoy	-0.3010
-4.1922 pose	-0.3010
-4.1922 position	-0.3010
-4.1922 positions	-0.3010
-4.1922 positive	-0.3010
-4.1922 possibility	-0.3010
-4.1922 possible	-0.3010
-4.1922 possibly	-0.3010
-4.1922 post	-0.3010
-4.1922 postal	-0.3010
-4.1922 posted	-0.3010
-4.1922 postponed	-0.3010
-4.1922 posts	-0.3010
-4.1922 potash	-0.3010
-4.1922 potential	-0.3010
-4.1922 pound	-0.3010
-4.1922 pounds	-0.3010
-4.1922 poverty	-0.3010
-4.1922 power	-0.3010
-4.1922 powerful	-0.3010
-4.1922 powers	-0.3010
-4.1922 practically	-0.3010
-4.1922 practices	-0.3010
-4.1922 pragmatic	-0.3010
-4.1922 praised	-0.3010
-4.1922 pratt	-0.3010
-4.1922 pre	-0.3010
-4.1922 prebon	-0.3010
-4.1922 precedent	-0.3010
-4.1922 precious	-0.3010
-4.1922 precise	-0.3010
-4.1922 predators	-0.3010
-4.1922 predict	-0.3010
-4.1922 predicted	-0.3010
-4.1922 predicting	-0.3010
-4.1922 predictions	-0.3010
-4.1922 predicts	-0.3010
-4.1922 prefer	-0.3010
-4.1922 preferred	-0.3010
-4.1922 preliminary	-0.3010
-4.1922 premature	-0.3010
-4.1922 premium	-0.3010
-4.1922 premiums	-0.3010
-4.1922 prepared	-0.3010
-4.1922 preparing	-0.3010
-4.1922 presence	-0.3010
-4.1922 present	-0.3010
-4.1922 president	-0.3010
-4.1922 president's	-0.3010
-4.1922 presidential	-0.3010
-4.1922 press	-0.3010
-4.1922 pressure	-0.3010
-4.1922 pressures	-0.3010
-4.1922 presumably	-0.3010
-4.1922 pretax	-0.3010
-4.1922 pretty	-0.3010
-4.1922 prevail	-0.3010
-4.1922 prevent	-0.3010
-4.1922 prevented	-0.3010
-4.1922 previous	-0.3010
-4.1922 previously	-0.3010
-4.1922 price	-0.3010
-4.1922 priced	-0.3010
-4.1922 prices	-0.3010
-4.1922 pricing	-0.3010
-4.1922 pride	-0.3010
-4.1922 primarily	-0.3010
-4.1922 primary	-0.3010
-4.1922 prime	-0.3010
-4.1922 principal	-0.3010
-4.1922 print	-0.3010
-4.1922 printing	-0.3010
-4.1922 prior	-0.3010
-4.1922 priority	-0.3010
-4.1922 pritzker	-0.3010
-4.1922 private	-0.3010
-4.1922 privately	-0.3010
-4.1922 privatization	-0.3010
-4.1922 prize	-0.3010
-4.1922 probably	-0.3010
-4.1922 probe	-0.3010
-4.1922 problem	-0.3010
-4.1922 problems	-0.3010
-4.1922 procedure	-0.3010
-4.1922 proceed	-0.3010
-4.1922 proceeded	-0.3010
-4.1922 proceeds	-0.3010
-4.1922 process	-0.3010
-4.1922 processing	-0.3010
-4.1922 proclaimed	-0.3010
-4.1922 produce	-0.3010
-4.1922 produced	-0.3010
-4.1922 producer	-0.3010
-4.1922 producers	-0.3010
-4.1922 produces	-0.3010
-4.1922 producing	-0.3010
-4.1922 product	-0.3010
-4.1922 production	-0.3010
-4.1922 productive	-0.3010
-4.1922 productivity	-0.3010
-4.1922 products	-0.3010
-4.1922 professional	-0.3010
-4.1922 professionals	-0.3010
-4.1922 professor	-0.3010
-4.1922 profile	-0.3010
-4.1922 profit	-0.3010
-4.1922 profitability	-0.3010
-4.1922 profitable	-0.3010
-4.1922 profits	-0.3010
-4.1922 program	-0.3010
-4.1922 programming	-0.3010
-4.1922 programs	-0.3010
-4.1922 progress	-0.3010
-4.1922 prohibit	-0.3010
-4.1922 project	-0.3010
-4.1922 projected	-0.3010
-4.1922 projection	-0.3010
-4.1922 projections	-0.3010
-4.1922 projects	-0.3010
-4.1922 prominent	-0.3010
-4.1922 promote	-0.3010
-4.1922 promotions	-0.3010
-4.1922 prompted	-0.3010
-4.1922 propelled	-0.3010
-4.1922 proper	-0.3010
-4.1922 properties	-0.3010
-4.1922 property	-0.3010
-4.1922 proportionate	-0.3010
-4.1922 proposal	-0.3010
-4.1922 proposals	-0.3010
-4.1922 propose	-0.3010
-4.1922 proposed	-0.3010
-4.1922 proposing	-0.3010
-4.1922 prospect	-0.3010
-4.1922 prospects	-0.3010
-4.1922 protect	-0.3010
-4.1922 protected	-0.3010
-4.1922 protection	-0.3010
-4.1922 protectionism	-0.3010
-4.1922 protectionist	-0.3010
-4.1922 protest	-0.3010
-4.1922 prove	-0.3010
-4.1922 proved	-0.3010
-4.1922 provide	-0.3010
-4.1922 provided	-0.3010
-4.1922 providence	-0.3010
-4.1922 provides	-0.3010
-4.1922 providing	-0.3010
-4.1922 province	-0.3010
-4.1922 provision	-0.3010
-4.1922 provisions	-0.3010
-4.1922 proxy	-0.3010
-4.1922 prudential	-0.3010
-4.1922 psychological	-0.3010
-4.1922 public	-0.3010
-4.1922 publication	-0.3010
-4.1922 publications	-0.3010
-4.1922 publicly	-0.3010
-4.1922 publisher	-0.3010
-4.1922 publishers	-0.3010
-4.1922 publishing	-0.3010
-4.1922 pull	-0.3010
-4.1922 pulled	-0.3010
-4.1922 pulling	-0.3010
-4.1922 pulp	-0.3010
-4.1922 punitive	-0.3010
-4.1922 purchase	-0.3010
-4.1922 purchased	-0.3010
-4.1922 purchases	-0.3010
-4.1922 purchasing	-0.3010
-4.1922 pure	-0.3010
-4.1922 purpose	-0.3010
-4.1922 purposes	-0.3010
-4.1922 pursue	-0.3010
-4.1922 pursued	-0.3010
-4.1922 pursuing	-0.3010
-4.1922 push	-0.3010
-4.1922 pushed	-0.3010
-4.1922 pushes	-0.3010
-4.1922 pushing	-0.3010
-4.1922 put	-0.3010
-4.1922 puts	-0.3010
-4.1922 putting	-0.3010
-4.1922 puzzled	-0.3010
-4.1922 qualified	-0.3010
-4.1922 quality	-0.3010
-4.1922 quarter	-0.3010
-4.1922 quarterly	-0.3010
-4.1922 quarters	-0.3010
-4.1922 quebec	-0.3010
-4.1922 question	-0.3010
-4.1922 questions	-0.3010
-4.1922 quick	-0.3010
-4.1922 quickly	-0.3010
-4.1922 quiet	-0.3010
-4.1922 quite	-0.3010
-4.1922 quota	-0.3010
-4.1922 quotas	-0.3010
-4.1922 quotation	-0.3010
-4.1922 quoted	-0.3010
-4.1922 r.	-0.3010
-4.1922 r.'s	-0.3010
-4.1922 race	-0.3010
-4.1922 radar	-0.3010
-4.1922 radio	-0.3010
-4.1922 raid	-0.3010
-4.1922 raider	-0.3010
-4.1922 raiders	-0.3010
-4.1922 rail	-0.3010
-4.1922 railroad	-0.3010
-4.1922 railroads	-0.3010
-4.1922 railway	-0.3010
-4.1922 rain	-0.3010
-4.1922 raise	-0.3010
-4.1922 raised	-0.3010
-4.1922 raises	-0.3010
-4.1922 raising	-0.3010
-4.1922 rallied	-0.3010
-4.1922 rallies	-0.3010
-4.1922 rally	-0.3010
-4.1922 ran	-0.3010
-4.1922 rand	-0.3010
-4.1922 range	-0.3010
-4.1922 ranged	-0.3010
-4.1922 ranging	-0.3010
-4.1922 rank	-0.3010
-4.1922 ranked	-0.3010
-4.1922 ranking	-0.3010
-4.1922 ranks	-0.3010
-4.1922 rapid	-0.3010
-4.1922 rapidly	-0.3010
-4.1922 rarely	-0.3010
-4.1922 rate	-0.3010
-4.1922 rated	-0.3010
-4.1922 rates	-0.3010
-4.1922 rather	-0.3010
-4.1922 ratification	-0.3010
-4.1922 ratified	-0.3010
-4.1922 rating	-0.3010
-4.1922 ratings	-0.3010
-4.1922 ratio	-0.3010
-4.1922 raw	-0.3010
-4.1922 re	-0.3010
-4.1922 reach	-0.3010
-4.1922 reached	-0.3010
-4.1922 reaching	-0.3010
-4.1922 react	-0.3010
-4.1922 reacted	-0.3010
-4.1922 reaction	-0.3010
-4.1922 read	-0.3010
-4.1922 reading	-0.3010
-4.1922 ready	-0.3010
-4.1922 reaffirmed	-0.3010
-4.1922 reagan	-0.3010
-4.1922 reagan's	-0.3010
-4.1922 real	-0.3010
-4.1922 realistically	-0.3010
-4.1922 reality	-0.3010
-4.1922 realize	-0.3010
-4.1922 realized	-0.3010
-4.1922 really	-0.3010
-4.1922 reappointed	-0.3010
-4.1922 reason	-0.3010
-4.1922 reasonable	-0.3010
-4.1922 reasonably	-0.3010
-4.1922 reasons	-0.3010
-4.1922 rebels	-0.3010
-4.1922 rebound	-0.3010
-4.1922 rebounded	-0.3010
-4.1922 rebuilding	-0.3010
-4.1922 recall	-0.3010
-4.1922 recalls	-0.3010
-4.1922 recapitalization	-0.3010
-4.1922 receive	-0.3010
-4.1922 received	-0.3010
-4.1922 receiving	-0.3010
-4.1922 recent	-0.3010
-4.1922 recently	-0.3010
-4.1922 recession	-0.3010
-4.1922 recipients	-0.3010
-4.1922 reckoned	-0.3010
-4.1922 recognition	-0.3010
-4.1922 recognize	-0.3010
-4.1922 recognized	-0.3010
-4.1922 recommend	-0.3010
-4.1922 recommendations	-0.3010
-4.1922 record	-0.3010
-4.1922 recorded	-0.3010
-4.1922 records	-0.3010
-4.1922 recount	-0.3010
-4.1922 recoup	-0.3010
-4.1922 recover	-0.3010
-4.1922 recoverable	-0.3010
-4.1922 recovered	-0.3010
-4.1922 recovering	-0.3010
-4.1922 recovery	-0.3010
-4.1922 recurrence	-0.3010
-4.1922 red	-0.3010
-4.1922 redeem	-0.3010
-4.1922 redemption	-0.3010
-4.1922 redemptions	-0.3010
-4.1922 reduce	-0.3010
-4.1922 reduced	-0.3010
-4.1922 reducing	-0.3010
-4.1922 reduction	-0.3010
-4.1922 reductions	-0.3010
-4.1922 reed	-0.3010
-4.1922 referred	-0.3010
-4.1922 refinance	-0.3010
-4.1922 refiner	-0.3010
-4.1922 refining	-0.3010
-4.1922 reflect	-0.3010
-4.1922 reflected	-0.3010
-4.1922 reflecting	-0.3010
-4.1922 reflects	-0.3010
-4.1922 reform	-0.3010
-4.1922 reforms	-0.3010
-4.1922 refugees	-0.3010
-4.1922 refund	-0.3010
-4.1922 refunding	-0.3010
-4.1922 refuse	-0.3010
-4.1922 refused	-0.3010
-4.1922 refusing	-0.3010
-4.1922 regan	-0.3010
-4.1922 regard	-0.3010
-4.1922 regarded	-0.3010
-4.1922 regarding	-0.3010
-4.1922 region	-0.3010
-4.1922 regional	-0.3010
-4.1922 regions	-0.3010
-4.1922 register	-0.3010
-4.1922 registered	-0.3010
-4.1922 registration	-0.3010
-4.1922 regular	-0.3010
-4.1922 regulate	-0.3010
-4.1922 regulated	-0.3010
-4.1922 regulation	-0.3010
-4.1922 regulations	-0.3010
-4.1922 regulators	-0.3010
-4.1922 regulatory	-0.3010
-4.1922 reiterated	-0.3010
-4.1922 reject	-0.3010
-4.1922 rejected	-0.3010
-4.1922 rekindled	-0.3010
-4.1922 relate	-0.3010
-4.1922 related	-0.3010
-4.1922 relations	-0.3010
-4.1922 relationship	-0.3010
-4.1922 relative	-0.3010
-4.1922 relatively	-0.3010
-4.1922 release	-0.3010
-4.1922 released	-0.3010
-4.1922 reliable	-0.3010
-4.1922 reliance	-0.3010
-4.1922 reliance's	-0.3010
-4.1922 relief	-0.3010
-4.1922 reluctant	-0.3010
-4.1922 rely	-0.3010
-4.1922 remain	-0.3010
-4.1922 remainder	-0.3010
-4.1922 remained	-0.3010
-4.1922 remaining	-0.3010
-4.1922 remains	-0.3010
-4.1922 remember	-0.3010
-4.1922 remove	-0.3010
-4.1922 removed	-0.3010
-4.1922 renewed	-0.3010
-4.1922 reopen	-0.3010
-4.1922 reorganization	-0.3010
-4.1922 reorganized	-0.3010
-4.1922 repay	-0.3010
-4.1922 repayment	-0.3010
-4.1922 repeal	-0.3010
-4.1922 repeated	-0.3010
-4.1922 repeatedly	-0.3010
-4.1922 replace	-0.3010
-4.1922 replaced	-0.3010
-4.1922 replacement	-0.3010
-4.1922 replacing	-0.3010
-4.1922 replied	-0.3010
-4.1922 report	-0.3010
-4.1922 reported	-0.3010
-4.1922 reportedly	-0.3010
-4.1922 reporters	-0.3010
-4.1922 reporting	-0.3010
-4.1922 reports	-0.3010
-4.1922 represent	-0.3010
-4.1922 representative	-0.3010
-4.1922 representatives	-0.3010
-4.1922 represented	-0.3010
-4.1922 representing	-0.3010
-4.1922 represents	-0.3010
-4.1922 republic	-0.3010
-4.1922 republican	-0.3010
-4.1922 republicans	-0.3010
-4.1922 repurchase	-0.3010
-4.1922 reputation	-0.3010
-4.1922 request	-0.3010
-4.1922 requested	-0.3010
-4.1922 requests	-0.3010
-4.1922 require	-0.3010
-4.1922 required	-0.3010
-4.1922 requirements	-0.3010
-4.1922 requires	-0.3010
-4.1922 rescue	-0.3010
-4.1922 research	-0.3010
-4.1922 researcher	-0.3010
-4.1922 researchers	-0.3010
-4.1922 resemble	-0.3010
-4.1922 reservations	-0.3010
-4.1922 reserve	-0.3010
-4.1922 reserves	-0.3010
-4.1922 residential	-0.3010
-4.1922 resign	-0.3010
-4.1922 resignation	-0.3010
-4.1922 resigned	-0.3010
-4.1922 resigning	-0.3010
-4.1922 resistance	-0.3010
-4.1922 resolution	-0.3010
-4.1922 resolve	-0.3010
-4.1922 resolved	-0.3010
-4.1922 resort	-0.3010
-4.1922 resorts	-0.3010
-4.1922 resorts'	-0.3010
-4.1922 resources	-0.3010
-4.1922 respectable	-0.3010
-4.1922 respectively	-0.3010
-4.1922 respond	-0.3010
-4.1922 responded	-0.3010
-4.1922 respondents	-0.3010
-4.1922 response	-0.3010
-4.1922 responsibility	-0.3010
-4.1922 responsible	-0.3010
-4.1922 responsive	-0.3010
-4.1922 rest	-0.3010
-4.1922 restated	-0.3010
-4.1922 restaurant	-0.3010
-4.1922 restaurants	-0.3010
-4.1922 restore	-0.3010
-4.1922 restrained	-0.3010
-4.1922 restraining	-0.3010
-4.1922 restraint	-0.3010
-4.1922 restricted	-0.3010
-4.1922 restrictions	-0.3010
-4.1922 restructure	-0.3010
-4.1922 restructuring	-0.3010
-4.1922 result	-0.3010
-4.1922 resulted	-0.3010
-4.1922 resulting	-0.3010
-4.1922 results	-0.3010
-4.1922 resume	-0.3010
-4.1922 resumption	-0.3010
-4.1922 retail	-0.3010
-4.1922 retailer	-0.3010
-4.1922 retailers	-0.3010
-4.1922 retailing	-0.3010
-4.1922 retain	-0.3010
-4.1922 retained	-0.3010
-4.1922 retire	-0.3010
-4.1922 retirement	-0.3010
-4.1922 retirements	-0.3010
-4.1922 retreated	-0.3010
-4.1922 return	-0.3010
-4.1922 returned	-0.3010
-4.1922 returning	-0.3010
-4.1922 returns	-0.3010
-4.1922 revamping	-0.3010
-4.1922 revenue	-0.3010
-4.1922 revenues	-0.3010
-4.1922 reverend	-0.3010
-4.1922 reverse	-0.3010
-4.1922 reversed	-0.3010
-4.1922 review	-0.3010
-4.1922 reviewed	-0.3010
-4.1922 reviewing	-0.3010
-4.1922 reviews	-0.3010
-4.1922 revised	-0.3010
-4.1922 revision	-0.3010
-4.1922 revolution	-0.3010
-4.1922 reynolds	-0.3010
-4.1922 rich	-0.3010
-4.1922 richard	-0.3010
-4.1922 richmond	-0.3010
-4.1922 rid	-0.3010
-4.1922 riddle	-0.3010
-4.1922 riddled	-0.3010
-4.1922 rigged	-0.3010
-4.1922 right	-0.3010
-4.1922 rights	-0.3010
-4.1922 riled	-0.3010
-4.1922 rise	-0.3010
-4.1922 risen	-0.3010
-4.1922 rises	-0.3010
-4.1922 rising	-0.3010
-4.1922 risk	-0.3010
-4.1922 risks	-0.3010
-4.1922 risky	-0.3010
-4.1922 rival	-0.3010
-4.1922 rivals	-0.3010
-4.1922 riyals	-0.3010
-4.1922 road	-0.3010
-4.1922 roads	-0.3010
-4.1922 robert	-0.3010
-4.1922 roberts	-0.3010
-4.1922 robertson	-0.3010
-4.1922 robins	-0.3010
-4.1922 robust	-0.3010
-4.1922 roger	-0.3010
-4.1922 role	-0.3010
-4.1922 roll	-0.3010
-4.1922 rolls	-0.3010
-4.1922 ronald	-0.3010
-4.1922 room	-0.3010
-4.1922 rorer	-0.3010
-4.1922 rose	-0.3010
-4.1922 rostenkowski	-0.3010
-4.1922 rothschild	-0.3010
-4.1922 roughly	-0.3010
-4.1922 round	-0.3010
-4.1922 routes	-0.3010
-4.1922 routinely	-0.3010
-4.1922 roving	-0.3010
-4.1922 row	-0.3010
-4.1922 roy	-0.3010
-4.1922 rubber	-0.3010
-4.1922 rudman	-0.3010
-4.1922 rule	-0.3010
-4.1922 ruled	-0.3010
-4.1922 rules	-0.3010
-4.1922 ruling	-0.3010
-4.1922 rumored	-0.3010
-4.1922 rumors	-0.3010
-4.1922 run	-0.3010
-4.1922 running	-0.3010
-4.1922 runs	-0.3010
-4.1922 rural	-0.3010
-4.1922 rush	-0.3010
-4.1922 russell	-0.3010
-4.1922 ryder	-0.3010
-4.1922 s.	-0.3010
-4.1922 saatchi	-0.3010
-4.1922 sachs	-0.3010
-4.1922 sacramento	-0.3010
-4.1922 safe	-0.3010
-4.1922 safety	-0.3010
-4.1922 safra	-0.3010
-4.1922 said	-0.3010
-4.1922 saint	-0.3010
-4.1922 salant	-0.3010
-4.1922 salaries	-0.3010
-4.1922 salary	-0.3010
-4.1922 sale	-0.3010
-4.1922 sales	-0.3010
-4.1922 sallie	-0.3010
-4.1922 salomon	-0.3010
-4.1922 sam	-0.3010
-4.1922 same	-0.3010
-4.1922 sampling	-0.3010
-4.1922 san	-0.3010
-4.1922 sanctions	-0.3010
-4.1922 sank	-0.3010
-4.1922 santa	-0.3010
-4.1922 satisfied	-0.3010
-4.1922 satisfy	-0.3010
-4.1922 saturday	-0.3010
-4.1922 saudi	-0.3010
-4.1922 saunders	-0.3010
-4.1922 save	-0.3010
-4.1922 saved	-0.3010
-4.1922 savings	-0.3010
-4.1922 saw	-0.3010
-4.1922 say	-0.3010
-4.1922 saying	-0.3010
-4.1922 says	-0.3010
-4.1922 scale	-0.3010
-4.1922 scandal	-0.3010
-4.1922 scenario	-0.3010
-4.1922 scharenberg	-0.3010
-4.1922 schedule	-0.3010
-4.1922 scheduled	-0.3010
-4.1922 schedules	-0.3010
-4.1922 schoen	-0.3010
-4.1922 school	-0.3010
-4.1922 schools	-0.3010
-4.1922 schroder	-0.3010
-4.1922 schwab	-0.3010
-4.1922 schwab's	-0.3010
-4.1922 schwartzberg's	-0.3010
-4.1922 scored	-0.3010
-4.1922 scores	-0.3010
-4.1922 scorn	-0.3010
-4.1922 scotto	-0.3010
-4.1922 scouting	-0.3010
-4.1922 scrimp	-0.3010
-4.1922 scrutiny	-0.3010
-4.1922 sea	-0.3010
-4.1922 seabrook	-0.3010
-4.1922 search	-0.3010
-4.1922 searched	-0.3010
-4.1922 searle	-0.3010
-4.1922 sears	-0.3010
-4.1922 sears's	-0.3010
-4.1922 season	-0.3010
-4.1922 seasonal	-0.3010
-4.1922 seats	-0.3010
-4.1922 seattle	-0.3010
-4.1922 second	-0.3010
-4.1922 secondary	-0.3010
-4.1922 seconds	-0.3010
-4.1922 secretary	-0.3010
-4.1922 section	-0.3010
-4.1922 sector	-0.3010
-4.1922 sectors	-0.3010
-4.1922 secure	-0.3010
-4.1922 securities	-0.3010
-4.1922 security	-0.3010
-4.1922 see	-0.3010
-4.1922 seeing	-0.3010
-4.1922 seek	-0.3010
-4.1922 seeking	-0.3010
-4.1922 seeks	-0.3010
-4.1922 seem	-0.3010
-4.1922 seemed	-0.3010
-4.1922 seems	-0.3010
-4.1922 seen	-0.3010
-4.1922 sees	-0.3010
-4.1922 segment	-0.3010
-4.1922 segments	-0.3010
-4.1922 selected	-0.3010
-4.1922 selection	-0.3010
-4.1922 self	-0.3010
-4.1922 sell	-0.3010
-4.1922 seller	-0.3010
-4.1922 sellers	-0.3010
-4.1922 selling	-0.3010
-4.1922 sells	-0.3010
-4.1922 semi	-0.3010
-4.1922 semiconductor	-0.3010
-4.1922 senate	-0.3010
-4.1922 senator	-0.3010
-4.1922 senators	-0.3010
-4.1922 send	-0.3010
-4.1922 sending	-0.3010
-4.1922 senior	-0.3010
-4.1922 senn	-0.3010
-4.1922 sense	-0.3010
-4.1922 sensitive	-0.3010
-4.1922 sent	-0.3010
-4.1922 sentiment	-0.3010
-4.1922 seoul	-0.3010
-4.1922 separate	-0.3010
-4.1922 separately	-0.3010
-4.1922 september	-0.3010
-4.1922 series	-0.3010
-4.1922 serious	-0.3010
-4.1922 seriously	-0.3010
-4.1922 serve	-0.3010
-4.1922 served	-0.3010
-4.1922 serves	-0.3010
-4.1922 service	-0.3010
-4.1922 services	-0.3010
-4.1922 servicing	-0.3010
-4.1922 serving	-0.3010
-4.1922 session	-0.3010
-4.1922 sessions	-0.3010
-4.1922 set	-0.3010
-4.1922 sets	-0.3010
-4.1922 setting	-0.3010
-4.1922 settle	-0.3010
-4.1922 settled	-0.3010
-4.1922 settlement	-0.3010
-4.1922 settlements	-0.3010
-4.1922 settling	-0.3010
-4.1922 seven	-0.3010
-4.1922 seven's	-0.3010
-4.1922 seventeen	-0.3010
-4.1922 seventeenth	-0.3010
-4.1922 seventh	-0.3010
-4.1922 seventies	-0.3010
-4.1922 seventy	-0.3010
-4.1922 several	-0.3010
-4.1922 severance	-0.3010
-4.1922 severe	-0.3010
-4.1922 severely	-0.3010
-4.1922 sexes	-0.3010
-4.1922 sexy	-0.3010
-4.1922 shame	-0.3010
-4.1922 shamrock	-0.3010
-4.1922 shamrock's	-0.3010
-4.1922 shape	-0.3010
-4.1922 share	-0.3010
-4.1922 shareholder	-0.3010
-4.1922 shareholders	-0.3010
-4.1922 shares	-0.3010
-4.1922 sharing	-0.3010
-4.1922 sharp	-0.3010
-4.1922 sharpest	-0.3010
-4.1922 sharply	-0.3010
-4.1922 she	-0.3010
-4.1922 shearson	-0.3010
-4.1922 shed	-0.3010
-4.1922 shedding	-0.3010
-4.1922 sheet	-0.3010
-4.1922 sheets	-0.3010
-4.1922 shell	-0.3010
-4.1922 shelter	-0.3010
-4.1922 sherlund	-0.3010
-4.1922 shield	-0.3010
-4.1922 shift	-0.3010
-4.1922 shifting	-0.3010
-4.1922 ship	-0.3010
-4.1922 shipbuilding	-0.3010
-4.1922 shipment	-0.3010
-4.1922 shipments	-0.3010
-4.1922 shipped	-0.3010
-4.1922 shipping	-0.3010
-4.1922 shock	-0.3010
-4.1922 shop	-0.3010
-4.1922 shopping	-0.3010
-4.1922 short	-0.3010
-4.1922 shortage	-0.3010
-4.1922 shortages	-0.3010
-4.1922 shorter	-0.3010
-4.1922 shortly	-0.3010
-4.1922 shortterm	-0.3010
-4.1922 shot	-0.3010
-4.1922 should	-0.3010
-4.1922 shouldn't	-0.3010
-4.1922 shove	-0.3010
-4.1922 show	-0.3010
-4.1922 showed	-0.3010
-4.1922 showing	-0.3010
-4.1922 shown	-0.3010
-4.1922 shows	-0.3010
-4.1922 shut	-0.3010
-4.1922 shy	-0.3010
-4.1922 side	-0.3010
-4.1922 sidelines	-0.3010
-4.1922 sides	-0.3010
-4.1922 siebert	-0.3010
-4.1922 siegel	-0.3010
-4.1922 siemens	-0.3010
